{
  "layers": [
    {
      "weights": [
        [
          0.04774007284030332,
          0.05026614891895247,
          0.05386959480750283,
          0.052613243947061156,
          0.07052588328451975,
          0.06448016625532962,
          0.05963785279017425,
          0.05112560424122965,
          0.0565096603244646,
          0.06590275235148803,
          -0.020807927530990564,
          -0.025414349345051414,
          -0.0554960745568706,
          0.0027674560256252395,
          -0.03706221896441399,
          -0.029972775339119608,
          -0.022358039107883074,
          0.007139261112521943,
          -0.009280967912176068,
          0.02369813876915058,
          0.04824353050583842,
          0.037550552171503854,
          0.05832042759831151,
          0.061975516868553814,
          0.0608353522126177,
          0.07594119086916559,
          0.06266698521866973,
          0.04114363218130688,
          0.054194087242844705,
          0.06590441502390007,
          -0.016982076048752685,
          -0.03952829773476529,
          -0.05421830911406812,
          0.012353890500964117,
          -0.04008035736155993,
          -0.022111974766927493,
          -0.03148914109900754,
          -0.003045484121308021,
          -0.0038847844134537557,
          0.023441573423625277,
          0.05562780830284682,
          0.06450163529718557,
          0.06662762894014203,
          0.05833970194147916,
          0.06340312711335688,
          0.0638823144134747,
          0.06700242454931399,
          0.020404959080427824,
          0.048923019355766886,
          0.0693208053795174,
          -0.02566572613764483,
          -0.031840028266252145,
          -0.0368221667520256,
          0.005831585696563578,
          -0.03559823017608977,
          -0.029677959437093816,
          -0.012247378452502466,
          0.03516971434986633,
          -0.008889376769057454,
          0.019561287351595135,
          0.05822457078512255,
          0.0403848704211003,
          0.04361864584903898,
          0.04977116779857353,
          0.06350879848549981,
          0.05194693897897749,
          0.06652727824510675,
          0.060463495786720556,
          0.05649926059030244,
          0.039678423641526274,
          -0.013080992176057685,
          -0.03474595669337106,
          -0.0235037782049358,
          0.00912574185644642,
          -0.04471773692090089,
          -0.01062957099279317,
          -0.013701804157666263,
          0.006629082384896025,
          -0.02269388491099016,
          0.006034426757906793,
          0.05890463531194197,
          0.043283231473608665,
          0.04356317249872392,
          0.04971509512404067,
          0.05107087431568014,
          0.06291947370216103,
          0.060771758925607364,
          0.06114843101347135,
          0.053990459058121665,
          0.04444147214976043,
          -0.02390180391725039,
          -0.05672117042349937,
          -0.03887237763722608,
          -0.004177273367893668,
          -0.05460498086358481,
          -0.02178005408909911,
          -0.0250267080227616,
          0.011870979402773908,
          -0.003961519547070035,
          0.02192013086391886,
          0.0651971294389894,
          0.050696428883602825,
          0.06781540418822864,
          0.05804166820673314,
          0.052983399082225394,
          0.039863286911215566,
          0.05648678857751405,
          0.054771337807439854,
          0.04148604116387354,
          0.04919043658412416,
          -0.029038094332023645,
          -0.04597551232835955,
          -0.03212399771943446,
          -0.0058124173704755845,
          -0.06631855898002792,
          -0.013030201574775137,
          -0.021432785399937232,
          0.008881893528386229,
          -0.021524912956885755,
          0.018354055931950452,
          0.0418926015038852,
          0.04869788965319104,
          0.05282024803387544,
          0.06850462100163855,
          0.057941788380076534,
          0.045473702825752214,
          0.04035332296403962,
          0.0674382879544957,
          0.0618933693882337,
          0.05151440474787642,
          -0.03991834665704198,
          -0.023543365772629096,
          -0.043365927084143385,
          -0.008532454951095558,
          -0.05552723875192188,
          -0.004856750522462465,
          -0.020902292803741583,
          0.02387778343858824,
          -0.023708459619060786,
          0.036561727793525116,
          0.0558705925950356,
          0.060271216537358833,
          0.04931990554014976,
          0.06792527685226755,
          0.04389798132099798,
          0.04806363176530238,
          0.049843166159624114,
          0.05453059655311247,
          0.055674218941183864,
          0.05658847925686388,
          -0.013963169640130904,
          -0.04933739563386295,
          -0.02979214757869989,
          -0.01061303806400056,
          -0.04860756353125925,
          -0.015041488415396593,
          -0.015262550398616043,
          0.02333649529037905,
          -0.015657435284702793,
          0.016079980567664364,
          0.05646396700130043,
          0.044970558078127346,
          0.06853725759647121,
          0.07310420007306795,
          0.057185354173566336,
          0.03879772695546361,
          0.05659168658006694,
          0.05914324962768967,
          0.06308078256492468,
          0.056906477729239784,
          -0.033837464194926566,
          -0.05879844201119364,
          -0.03484844239281011,
          -0.0005071946983353306,
          -0.048656194044028295,
          -0.026392426869278816,
          -0.027550329492365175,
          0.016470030881925658,
          -0.010609488266731026,
          0.02260901574202667,
          0.0446381815273652,
          0.057918803392423314,
          0.06209192064007433,
          0.052894066629807286,
          0.06950642366887337,
          0.05028407122660845,
          0.04582851021207093,
          0.057949944405072146,
          0.053063714403160295,
          0.05637777934361058,
          -0.012310262503115156,
          -0.05492744838051484,
          -0.031184991160550575,
          -0.010546522109393601,
          -0.053051744951973775,
          0.0009907630328271982,
          -0.028828193299019544,
          -0.009333964040564621,
          -0.012850911029701938,
          0.02507398136873893,
          0.05125983605402953,
          0.06641245355778261,
          0.06098002711437816,
          0.055746562310904406,
          0.06080323457940963,
          0.061461316366170644,
          0.049146055730641625,
          0.051423540329676866,
          0.03591401467416929,
          0.04990555715092634,
          -0.019146439520327668,
          -0.04691335981109712,
          -0.038984496804852886,
          -0.004729938540434927,
          -0.06057457564114402,
          0.009286421025190478,
          -0.004206264412871934,
          0.01813975598324095,
          -0.010926337079582278,
          0.015647159207068197,
          0.05117385718062257,
          0.06375797210459412,
          0.05884497268201246,
          0.060956998027583816,
          0.06294746650911814,
          0.06852929141240789,
          0.05740468526045078,
          0.05853900292951121,
          0.06633556120603344,
          0.05744813607346395,
          -0.029284651819114514,
          -0.06646464412976719,
          -0.03716990667139938,
          0.009602930198975537,
          -0.03687332767896806,
          -0.017545472231721718,
          -0.036387384674129955,
          0.030149800477902566,
          -0.009750297996461661,
          0.01224282637115656,
          0.06459672931862184,
          0.04199463174611431,
          0.07119941748059212,
          0.059260867322691306,
          0.05103363771725436,
          0.06963809321820409,
          0.051644457914760494,
          0.05466250431247118,
          0.07261988714489323,
          0.05713987288079595,
          -0.02622092038909848,
          -0.022740151296407836,
          -0.04146836043856972,
          0.004596088583367828,
          -0.04306281369505312,
          -0.00047760157640176987,
          -0.005601568343521213,
          0.014202489900832237,
          0.003089746409277571,
          0.01675928938574778,
          0.053762308392046605,
          0.075340663425607,
          0.0468868223785171,
          0.04170539521440294,
          0.054431146562289076,
          0.05269625457406019,
          0.05008857202455795,
          0.06124456209954962,
          0.07009576548306565,
          0.061152368033319825,
          -0.012387185722216316,
          -0.04953164692815525,
          -0.020047779395544484,
          -0.01721935555030781,
          -0.04876849212795262,
          0.003094405268238515,
          -0.018747778915977044,
          0.03254993938109858,
          -0.021510736478816832,
          0.0356216064551327,
          0.06222375091418211,
          0.044436256553638566,
          0.0548436243478058,
          0.06282547752921509,
          0.06067290131364324,
          0.04693813291792503,
          0.04916184709114292,
          0.04578011796726334,
          0.05038158080481356,
          0.061321271032229126,
          -0.029927687125206975,
          -0.04915718332361211,
          -0.03630243845723581,
          -0.006130104134751227,
          -0.05204233711308659,
          -0.02014052900326146,
          -0.03332178375976912,
          0.016125641292544325,
          -0.024028834914160097,
          0.03418496259055639,
          0.06859669302322485,
          0.041479121856187864,
          0.06705404489930249,
          0.06771477391355525,
          0.05185642102097497,
          0.05907548487258702,
          0.03765528972471373,
          0.045942355258463886,
          0.056824165212691485,
          0.058820045034390776,
          -0.01720739809268059,
          -0.05230221672860794,
          -0.045121623931322616,
          -0.0036504523154569056,
          -0.045423222230024374,
          -0.015806963868797947,
          -0.019883839375245335,
          -0.003019647405486819,
          -0.015348160262764643,
          0.021158243301270124,
          0.05906416672026155,
          0.03601521972203233,
          0.05022444839292468,
          0.04054713669003461,
          0.05942159234808443,
          0.055893868774133666,
          0.0688850761745459,
          0.04551662529533236,
          0.05865224225951546,
          0.06567039004228382,
          -0.030178991813778245,
          -0.03418185883593743,
          -0.03015689498502444,
          -0.00812362565613552,
          -0.04372645230653055,
          -0.01510779479826853,
          0.0026478169120710817,
          0.006572570356586051,
          0.0025946445492269414,
          0.02204835316833185,
          0.05996392324440128,
          0.055279191088803345,
          0.060990750325270564,
          0.05451639513589896,
          0.04668264761860197,
          0.059082987097505944,
          0.0623023797533432,
          0.03593361178701581,
          0.042852895399965125,
          0.047431054012985856,
          -0.050941948130638785,
          -0.051395159990129856,
          -0.027298702333157357,
          -0.025178808696615432,
          -0.04649468115890466,
          -0.02688446500987084,
          -0.006697796285761896,
          -0.004085133743148001,
          -0.009684536905747911,
          0.023480664501958928,
          0.06635565610514667,
          0.041706844752727915,
          0.05270569047986925,
          0.06165357694899643,
          0.05542566601347253,
          0.07314503685688246,
          0.06267195454760115,
          0.04826757741209305,
          0.05283436013709342,
          0.06827900353976214,
          -0.039031870066026576,
          -0.034861721403653796,
          -0.03308880151540812,
          0.00607936844721895,
          -0.04144064200831727,
          -0.025334536779349878,
          -0.03335554588671857,
          0.03254865072954105,
          -0.011431599579137659,
          0.006279692926625204,
          0.048523511864787,
          0.058085385795504416,
          0.05609256435876404,
          0.03667719180941748,
          0.06922811820842174,
          0.05146404303877112,
          0.06814733726178104,
          0.05015053379529985,
          0.04711869690525376,
          0.05942926810621716,
          -0.03259573588032794,
          -0.02936229213353217,
          -0.03631733834974017,
          -0.00411799606567526,
          -0.055102088860372184,
          -0.013481762657442007,
          -0.029702821592414268,
          0.018060480876321807,
          -0.0030275397786756228,
          0.03167472868083847,
          0.04988214631119234,
          0.050419193325728716,
          0.029637695684651723,
          0.0439219049957748,
          0.051095369868904714,
          0.05242958924948304,
          0.05278978439232228,
          0.0500042635328735,
          0.06844659871835901,
          0.06066883076345685,
          -0.013372197574462563,
          -0.04073608660066735,
          -0.0328508784495828,
          0.0028720031269724357,
          -0.04588885420731997,
          -0.012284261109035044,
          -0.042643695277129696,
          0.022013095078695647,
          -0.006226328218181916,
          0.027738414347164484,
          0.05301915293205339,
          0.053232920947059593,
          0.04581742021619424,
          0.06747198004422619,
          0.059087922076170585,
          0.07405035148187873,
          0.0681755152604115,
          0.043327891220604334,
          0.08149904577270742,
          0.044507502561616265,
          -0.021867022610657916,
          -0.036243444614324445,
          -0.021247958501262224,
          -0.004523109034273781,
          -0.05454038313014101,
          -0.0011552758243632709,
          -0.02803606175051841,
          0.019916624302061692,
          -0.015269585945371807,
          0.023628414237735592,
          0.04455364434288478,
          0.07663262911230834,
          0.04361166396991334,
          0.0503670157516676,
          0.04973327389219051,
          0.051099888048937746,
          0.052385725618742204,
          0.056874590339235156,
          0.05451332990320047,
          0.04719690376967888,
          -0.02137602624552427,
          -0.04406042920942418,
          -0.04512027769048907,
          -0.012672852223487026,
          -0.035587431522836034,
          -0.01582222992105598,
          -0.020398358076594222,
          0.02990689418269422,
          -0.002176026640719101,
          0.014775857474605336,
          0.05538470305372031,
          0.07003468246251235,
          0.05063143323034427,
          0.05714546911457004,
          0.050194100423703356,
          0.048257444868833176,
          0.05873289273974651,
          0.04463517969721811,
          0.040651273297322266,
          0.052390679820275836,
          -0.040307621076007015,
          -0.047918969728565824,
          -0.06131558358205094,
          -0.022538388847849946,
          -0.043865119741386016,
          -0.03814646231707476,
          -0.020328140159773196,
          0.02567835020584296,
          0.0025011833084256393,
          0.02906104620767342,
          0.050610740805422695,
          0.06139906512549246,
          0.07017025978689206,
          0.0529249138933722,
          0.05934728985966094,
          0.07674686521655785,
          0.06797958207706398,
          0.04754497921706313,
          0.08455695542048347,
          0.03679078953953447,
          -0.028633585916362836,
          -0.039287950627423344,
          -0.030846165052984736,
          -0.00021588119649983492,
          -0.03540034145059554,
          -0.021623198300857988,
          -0.024544907708912433,
          0.01699501313912945,
          -0.032349927313976554,
          0.02887966980892375,
          0.081679643330124,
          0.048574764150796285,
          0.06101890744229312,
          0.059329599631443485,
          0.06120872251026489,
          0.07050644773528532,
          0.04078318476419297,
          0.03329049319204412,
          0.0507881323120999,
          0.05932816443480154,
          -0.027411190806883663,
          -0.04325399223111471,
          -0.018102314714299555,
          0.00010087249400917697,
          -0.051092654258471135,
          -0.02064478325850324,
          -0.032633441923277245,
          0.0038488352597614013,
          -0.014560907700008952,
          0.022544109663607283,
          0.06835593725062884,
          0.05301797718123106,
          0.05326990598967706,
          0.05799103847750706,
          0.07238388265069218,
          0.05914515781099227,
          0.0561308620851312,
          0.05153333034800318,
          0.06427408675839513,
          0.04244353312865826,
          -0.020923483090271835,
          -0.04890484052454287,
          -0.036529859140511045,
          0.0066698417339121074,
          -0.07970351528315528,
          -0.025424453861618537,
          -0.04814092649237756,
          0.00965533076844108,
          -0.004469188517871096,
          0.023106965727590443,
          0.07152689226528916,
          0.048965946558118305,
          0.045890208811037836,
          0.05026383152807383,
          0.04595919921802179,
          0.061542671748547946,
          0.04525789075976394,
          0.052145630673851806,
          0.06490431050381597,
          0.06899748570854056,
          -0.02374254083281335,
          -0.042269579845574626,
          -0.02525055832549091,
          0.02164313681757796,
          -0.05962685382519951,
          -0.025049720247685498,
          -0.02098513487314932,
          0.018293544739772866,
          -0.0037213059758528714,
          0.03163961678194918,
          0.06361154268315537,
          0.052633637805323354,
          0.061928427537551865,
          0.055142867506743874,
          0.07112202710741687,
          0.04510701601110515,
          0.04994136302160167,
          0.054903388402951225,
          0.07038639718603143,
          0.06372923660701003,
          -0.03646911271015862,
          -0.03096315611901458,
          -0.052515458644874294,
          0.006652888845719053,
          -0.05669050640856052,
          -0.02173203166616726,
          -0.010056024776473566,
          0.009348818469019637,
          -0.011996886896320582,
          0.026905181577141616,
          0.05822101354119291,
          0.05117441483843916,
          0.04728485472566787,
          0.05505209400825703,
          0.04987517101471124,
          0.055525257523544695,
          0.06071360429198193,
          0.04101887126861919,
          0.04433264389021639,
          0.04877327913665729,
          -0.027907655641631723,
          -0.05082420987815798,
          -0.04310430338395778,
          0.0040297164821206065,
          -0.05061840601146969,
          -0.021207185112472486,
          -0.03466819838364105,
          0.012013612378154931,
          -0.016426182542303224,
          0.021356201054355168,
          0.04444884436623314,
          0.06207730560553559,
          0.05630245878668095,
          0.05620021126176377,
          0.035980896376312604,
          0.06769172082754774,
          0.06562750723162661,
          0.04754527897024785,
          0.073466826833189,
          0.05546627103058999,
          -0.014922288206114468,
          -0.012141962232853656,
          -0.03532215603117274,
          0.0040447139230464675,
          -0.061669618765117847,
          -0.00630653477794216,
          -0.015339301486686205,
          -0.0005713742973480129,
          0.00019328725000076114,
          0.024470679147856115,
          0.0706139264927503,
          0.06846149310479502,
          0.047637350313837146,
          0.04766349468246336,
          0.06985196162921022,
          0.04052385932926624,
          0.0378270796978836,
          0.06278492524339381,
          0.055579785194549744,
          0.05431447683892197,
          -0.026649731787456842,
          -0.04596779106666862,
          -0.027649639690741433,
          -0.010683744366963496,
          -0.05760022175486172,
          0.00919402846639014,
          -0.02133792302910295,
          0.009493897219172931,
          -0.015253607046251113,
          0.03235874473582122,
          0.04892914997415019,
          0.04148531196691595,
          0.07902850478328896,
          0.06765887660989515,
          0.060677605815802754,
          0.06350035952148006,
          0.04211870408038938,
          0.04403559601626158,
          0.04144043496762627,
          0.047877633828931544,
          -0.025326043852305084,
          -0.060382114366383445,
          -0.04764265267134349,
          -0.004150805689189738,
          -0.05686251853185295,
          -0.0027097028626591937,
          -0.02791179642478588,
          0.03172967873807435,
          -0.017769643584112798,
          0.005619517928611502,
          0.0500609006762802,
          0.04445205005386877,
          0.05691633491281492,
          0.05548042932777756,
          0.05741268046623804,
          0.07304791051831432,
          0.06014396338580315,
          0.05005456012375176,
          0.06293493416485248,
          0.05355416916817105,
          -0.029778475705884856,
          -0.05574545728212101,
          -0.03180895241934334,
          0.013467623959277805,
          -0.05632347766639664,
          -0.0040511959182590734,
          -0.03252931015373671,
          0.00994608184947907,
          0.0014826034587703302,
          0.02034952373711219,
          0.06964434396672599,
          0.06373490895599235,
          0.07289196979354289,
          0.04551739939702507,
          0.07188320897262408,
          0.049768437064591,
          0.0621708109239488,
          0.036709517196362264,
          0.04572776618003716,
          0.06206313996919508,
          -0.03713450210908419,
          -0.036717534827184393,
          -0.05300546810734871,
          0.007500051761480781,
          -0.05126792456379811,
          -0.018973449428322443,
          -0.027557598711953846,
          0.028016589987041842,
          -0.0004964251759996256,
          0.025287864251858395,
          0.054274930343043086,
          0.05668946472073199,
          0.056196047580406805,
          0.04497442022782272,
          0.049629188955476536,
          0.059172371132345025,
          0.057382006293352404,
          0.04949781807052351,
          0.05444836941679983,
          0.03456501114874158,
          -0.04955391112244891,
          -0.04169637624646237,
          -0.04426943266046489,
          0.007225576621437829,
          -0.026025244304778195,
          -0.022912248846380746,
          -0.016509896613038935,
          0.026520643436235242,
          -0.01066792193035537,
          0.024283888926518647,
          0.05888344492486176,
          0.06020619224088831,
          0.05366305475905168,
          0.06357323026537301,
          0.04788992985419323,
          0.045472458650210726,
          0.04829357685776481,
          0.07479675080139603,
          0.03604983473609754,
          0.057268826989991806,
          -0.02161237426471885,
          -0.03548207036786125,
          -0.027631409638207496,
          0.0049227466606129346,
          -0.0355308096220665,
          -0.02125803678942725,
          -0.01150695542118748,
          0.011340273043718024,
          -0.008023269870108263,
          0.0274705221010895,
          0.06047744652838316,
          0.057678249470544916,
          0.06269811626552155,
          0.043508001151835944,
          0.06932127975509085,
          0.06801903067707331,
          0.06933758279855565,
          0.05700313590441952,
          0.05304808555623136,
          0.0635677425559785,
          -0.02096830863716356,
          -0.05383080016593032,
          -0.043295515472903084,
          0.007426896995977563,
          -0.03700389453303053,
          -0.007304694086772967,
          -0.019146157326556085,
          0.007372263389916821,
          -0.008099920352434287,
          0.03137399694380355,
          0.03559329598116838,
          0.048232203158926935,
          0.0459827809203173,
          0.06392839192789498,
          0.053337766066015396,
          0.04905548970424208,
          0.07604857767492255,
          0.06866583261460328,
          0.06357363119468132,
          0.05192913980130943,
          -0.022034687401837675,
          -0.03751225539762251,
          -0.036480330014851056,
          0.0013633895268334094,
          -0.04792342139718149,
          -0.0199572950473499,
          -0.01379065652372979,
          0.010928135219824088,
          -0.030017062575243104,
          0.02431222343631952,
          0.0675564328514616,
          0.05541937265138015,
          0.08470600051168235,
          0.04808903968589748,
          0.06152000722882585,
          0.04705593876274503,
          0.07601788784023765,
          0.044045777844693774,
          0.04932367250490767,
          0.0409052049004153,
          -0.016606908098005708,
          -0.03488014733851995,
          -0.04815716908405469,
          -0.010216489069780815,
          -0.04087033369565625,
          -0.0038621567473721705,
          -0.013872548531006727,
          -0.0019231245410022766,
          -0.012771180117425996,
          0.035156921690017835,
          0.0570932887840751,
          0.06582222195718149,
          0.0724104446587677,
          0.04845965003848594,
          0.047086688266112606,
          0.06288949148862037,
          0.060406115372823185,
          0.03973192963098718,
          0.05001269721602205,
          0.052023649531699856,
          -0.01726489225098809,
          -0.03235799313500264,
          -0.03741464720725268,
          -0.011226858247738145,
          0.00534967641846373,
          -0.01947433008864756,
          -0.0048754929221333735,
          0.00647613763494131,
          -0.017168589354849276,
          0.028268272038064094,
          0.049723707878169696,
          0.05076311109761342,
          0.05413985801395481,
          0.06488986785699301,
          0.03865911666502775,
          0.05127351642084228,
          0.05351600860920556,
          0.032852045289427256,
          0.03528198073943878,
          0.05206295903231734,
          -0.04452393278749661,
          -0.03805333574825039,
          -0.024309622969718246,
          0.0021260196079778693,
          -0.02382604091772861,
          -0.015395145806227114,
          -0.013386280312006258,
          0.0024012898801842168,
          -0.022269207683906927,
          0.03210756063782767,
          0.04116879747553275,
          0.049255361777737115,
          0.05221653060220442,
          0.049763253263357794,
          0.04894512580827472,
          0.053497495243943094,
          0.057661722120229145,
          0.06288887538507543,
          0.07302127257680571,
          0.0723236355946049,
          -0.03456176614857092,
          -0.05476768099613049,
          -0.047960123478564334,
          0.006359497910295241,
          -0.04993827450216852,
          -0.025892816112176312,
          -0.02757047380857148,
          0.0185471864558558,
          -0.032622831110731394,
          0.02440883177528203,
          0.06723880867316194,
          0.05259403646364475,
          0.053934086199653924,
          0.05260151051820631,
          0.05908125247341063,
          0.040356629695769364,
          0.05822400969884482,
          0.052075013353857294,
          0.0701534675046919,
          0.07003029005672264,
          -0.028129723681682595,
          -0.027079570685869574,
          -0.05320784703148854,
          -0.006459230316236696,
          -0.0255305795346235,
          -0.007784047313729932,
          -0.00825507908837436,
          0.0355817592932889,
          -0.00939440672068257,
          0.03329324100254163,
          0.07028655632904982,
          0.0672877959040612,
          0.05896383405329345,
          0.05851292364826435,
          0.0645714969817293,
          0.057152030824501446,
          0.06370875240492097,
          0.05269366806246346,
          0.037940732246586076,
          0.04246393411735862,
          -0.021096335239916542,
          -0.03965574912045991,
          -0.015364231816888998,
          0.015060813964985535,
          -0.013938646455489529,
          -0.01534009167920093,
          -0.026923038968079217,
          0.0037274877072917922,
          -0.009398696939996082,
          0.02258477262457966,
          0.0654607276788848,
          0.04991328825710898,
          0.048960901039895394,
          0.05789112344953031,
          0.05288765520976735,
          0.040770084189937925,
          0.05771555474604535,
          0.05134129248316408,
          0.05317290369209231,
          0.05215493044515007,
          -0.0375575108480549,
          -0.034772957657878266,
          -0.029018249942254826,
          -0.009781209661601415,
          -0.044274297558064155,
          -0.01836618424844824,
          -0.01893667274476281,
          0.017797857746074324,
          -0.011224816890021687,
          0.023708868629539265,
          0.05322571598398836,
          0.057770522852458796,
          0.06719352584256634,
          0.0555157653759991,
          0.040510138320295444,
          0.047500101943418575,
          0.06978254759850337,
          0.03874523461210074,
          0.05955425822811976,
          0.05316881617693449,
          -0.015484825654696846,
          -0.026453395494831024,
          -0.039220259426019644,
          0.005208365468238763,
          -0.045728823614708244,
          -0.022135570472104897,
          -0.01974364947721774,
          0.0036726262816863717,
          -0.007853208457593153,
          0.040503826025130106,
          0.03877300318781833,
          0.04222387877408687,
          0.054827457774611,
          0.051326703753512566,
          0.05248652207730768,
          0.05173036477839479,
          0.06372007157903938,
          0.04078936371721433,
          0.054862056707870546,
          0.06681251962133584,
          -0.025710614474026717,
          -0.04803481526673065,
          -0.04719941887905084,
          -0.008312998370134675,
          -0.03507581753715453,
          -0.01626424289997726,
          -0.013238080381001851,
          0.021850039607031763,
          -0.01594712973431936,
          0.021525303654156395,
          0.04762763342652457,
          0.04503377366898328,
          0.05424552199184881,
          0.048756371456444965,
          0.05437140957134738,
          0.04909289171177681,
          0.04799308794064638,
          0.06879949720868805,
          0.05819999295710853,
          0.04835189077655451,
          -0.01758594716269259,
          -0.04484150385062413,
          -0.027975615315802456,
          0.0017984551304077428,
          -0.026344361946214954,
          -0.02307998987608976,
          -0.00995767885358511,
          0.013722244817401402,
          -0.0010129785557664104,
          0.01916246701368519,
          0.04971860188641549,
          0.049584720143954916,
          0.05715878412668439,
          0.06865799882377044,
          0.04731673096684409,
          0.04967343057008235,
          0.06907299706342161,
          0.07182128861476568,
          0.05276595013435552,
          0.04406064263509031,
          -0.005488210381739848,
          -0.06060464965649727,
          -0.02832151265167019,
          0.007696915486449156,
          -0.032797170614198845,
          -0.010360489578045388,
          -0.0415645686328937,
          0.006693905147836412,
          -0.006164574435680969,
          0.020693935837050235,
          0.04939473230413313,
          0.05129338031167062,
          0.05313961438353544,
          0.055622137024310195,
          0.04784044771449719,
          0.05982178079757326,
          0.06354037488842784,
          0.050696439377646604,
          0.07598768545443153,
          0.058904859335495746,
          -0.02921044288902481,
          -0.060968206023815794,
          -0.028521468363973297,
          0.0034776025365162184,
          -0.051180478032532006,
          -0.005914298285478593,
          -0.028127651384535237,
          0.014526096538539226,
          -0.006841939119202225,
          0.01722031460173189,
          0.058662758422304444,
          0.06533335581481323,
          0.052760374189994866,
          0.0498092217456358,
          0.07256632645071157,
          0.04646870527473451,
          0.05581689471085298,
          0.058305444484108356,
          0.05358153736049562,
          0.06384320525084929,
          -0.01805561317630611,
          -0.027489717236963838,
          -0.0182531669539805,
          0.01922794416699768,
          -0.063494781939953,
          -0.0094152170730067,
          -0.030147603786846902,
          0.020043252340644305,
          -0.01625938173931597,
          0.024721979909718535,
          0.06646657001132426,
          0.0516991733215612,
          0.055513453818853135,
          0.06140277505143515,
          0.052756785276294765,
          0.03622781259124384,
          0.051924550593058505,
          0.053485364331860255,
          0.04893842327566472,
          0.04855526193524954,
          -0.023556758469304783,
          -0.04841570618595859,
          -0.04189723444465834,
          -0.0036911360981363656,
          -0.04489004994652575,
          0.0013477484724615932,
          -0.02652134365683683,
          0.019682730750322366,
          -0.005333782808954211,
          0.01847735879728352,
          0.03708805953901738,
          0.07041073982812535,
          0.06270222592668646,
          0.044785135266399795,
          0.05946831702987798,
          0.04966235681622603,
          0.08403790999629612,
          0.055067106480357106,
          0.04071877500945615,
          0.07214404070193343,
          -0.02528366507889904,
          -0.03898187529768338,
          -0.014617094330234382,
          -0.0022248358004475733,
          -0.06115681197440251,
          -0.01618685337760452,
          -0.027060700124527153,
          0.008657860672027813,
          0.005384865731437204,
          0.009618516666784318,
          0.05426098651584568,
          0.05823741294107191,
          0.0579649292539958,
          0.049411274681699716,
          0.0552280855248021,
          0.047274261191037066,
          0.05617189535955387,
          0.0647915091882528,
          0.06579187148119955,
          0.04819858683083534,
          -0.050478555253565836,
          -0.04388314719162536,
          -0.030528168340127913,
          0.014258453784214177,
          -0.04883983370765291,
          -0.009684312136929147,
          -0.040178915137421396,
          0.018074352918852187,
          -0.009144885389717545,
          0.035492732555554414,
          0.04551947306648649,
          0.042935218702105524,
          0.038785272415990044,
          0.038431671262617796,
          0.05018650461605195,
          0.0535136847095145,
          0.06096633420488262,
          0.06854080015914896,
          0.03954532453824219,
          0.06706045549634651,
          -0.012072973954350669,
          -0.040979799634699166,
          -0.030832987020773,
          -0.01654400756814955,
          -0.049629078729717516,
          -0.004321358272331257,
          -0.024801095690729365,
          0.006236667770189732,
          -0.013494452706091158,
          0.04244031145960516,
          0.05701146945939274,
          0.04669359156023597,
          0.053524395861947786,
          0.04663011107425837,
          0.06532082928434725,
          0.06927521382072438,
          0.03743967896086951,
          0.05431294878386084,
          0.032860323623949944,
          0.056057504603663995,
          -0.033584768536843286,
          -0.03373599604113274,
          -0.01949471642100742,
          0.0009028755155625387,
          -0.04346473064639847,
          -0.018681915018809673,
          -0.024194480962560896,
          0.008266822999709105,
          -0.006626456291530682,
          0.0223336020389206,
          0.06714135528117275,
          0.042388713934321316,
          0.0454431290643024,
          0.062375922705207344,
          0.0692009477880319,
          0.06351791250751984,
          0.05504655534423049,
          0.03831739438329444,
          0.0593868994233903,
          0.03410782483894178,
          -0.027824445773249794,
          -0.034167918094016356,
          -0.05078473889193906,
          -0.01654052735665704,
          -0.07299089130966244,
          -0.009625456884607567,
          -0.008229399207339802,
          0.018607441692165615,
          -0.010894901908508224,
          0.011054755065721055,
          0.050938410275405785,
          0.04925744918285557,
          0.0506234288480621,
          0.05551906944508684,
          0.06366953195959511,
          0.057102195664556384,
          0.05923800631090348,
          0.04839425562296203,
          0.07197564865680767,
          0.04864511446169784,
          -0.02012909353942523,
          -0.05615651042670727,
          -0.034001240159531154,
          -0.006610446303356618,
          -0.028031601667859323,
          -0.015499534007920675,
          -0.02284047440100303,
          0.017715960705396227,
          -0.011276608709453805,
          0.028310043280994252,
          0.03470976907489988,
          0.05093711520786076,
          0.08171943634417844,
          0.05874920012197663,
          0.05602513837966767,
          0.043519921387267346,
          0.06150990197407568,
          0.05471662564543597,
          0.047052082444668866,
          0.05925875211087397,
          -0.03201712241540592,
          -0.029064586972724682,
          -0.04258302499943013,
          -0.01170946804718571,
          -0.05348297547867844,
          0.008110831315654909,
          -0.012447949952266588,
          0.008153627657356574,
          0.009349466757747615,
          0.023205431833000983,
          0.05982203787268086,
          0.0640188680176871,
          0.05076791057689109,
          0.05845986821187846,
          0.07026469285577754,
          0.057847662182659375,
          0.060001594891565174,
          0.058767339552597705,
          0.05955112811788199,
          0.05373769311542164,
          -0.013563766147878908,
          -0.04206121227435463,
          -0.04475512688356843,
          -0.02400292904491152,
          -0.055143682267375586,
          -0.015561889056482136,
          -0.014604822793207607,
          0.018189307545755384,
          0.0010834484849436864,
          0.014292756792817883,
          0.04595259225685474,
          0.034657318479451873,
          0.04685497371553099,
          0.05175225458145388,
          0.05239920105464349,
          0.05303062497554325,
          0.05204115106189025,
          0.041562500891018386,
          0.08102131199542674,
          0.04431588720395511,
          -0.02777207747874736,
          -0.03034748833295292,
          -0.022570907918830763,
          0.001252020421577411,
          -0.06891059177971676,
          -0.01940535978515455,
          -0.02473550984849187,
          0.019836783342862218,
          -0.009575591388373324,
          0.01325592035884316,
          0.061500910874973024,
          0.0644261641639971,
          0.04415013562707168,
          0.05068926597258648,
          0.06512028651258712,
          0.06376205440483776,
          0.061774492527665016,
          0.05699121183825135,
          0.06290062217026958,
          0.06036972657721201,
          -0.03448834955303695,
          -0.043842117725197395,
          -0.04515213254076693,
          -0.0009682906182677778,
          -0.05631858998600868,
          -0.0410134960636441,
          -0.03912730294283822,
          0.027792868179665284,
          -0.011231935725070152,
          0.008410969529533312,
          0.06663917417329535,
          0.046381810764832984,
          0.05107651852564979,
          0.05289518980558345,
          0.06651467378943239,
          0.06895379173532942,
          0.05236010712434649,
          0.06567162344359484,
          0.051140402131373046,
          0.0715652457167757,
          -0.02013195229580159,
          -0.033687852594962917,
          -0.036622069817381614,
          0.0020281058709245574,
          -0.01604847882007333,
          -0.0030642144231619105,
          0.0035314965510159935,
          0.003295471143408975,
          -0.019067675467337977,
          0.023844541861481255,
          0.054309946135740396,
          0.057729994058994615,
          0.0540255278224905,
          0.04284166876052373,
          0.05564535984175753,
          0.03379511079815119,
          0.0629499156978344,
          0.059250807011809056,
          0.06801226801469251,
          0.06599044208181117,
          -0.025737591284290335,
          -0.028815844834232534,
          -0.04998652713003969,
          -0.019770739650050842,
          0.0018754729933052382,
          -0.010125504999648776,
          -0.007968095180267795,
          0.023457091499976945,
          -0.02383252604188334,
          0.03482156919653386,
          0.058415285713744096,
          0.04782763898519119,
          0.05758842507113225,
          0.040814149447036215,
          0.04943837769062004,
          0.051396121120440556,
          0.05185955676214826,
          0.050985539575540806,
          0.05797422311064316,
          0.04751216418432431,
          0.002722093499991506,
          -0.036480571736831016,
          -0.04735652456453346,
          -0.02758302517096654,
          0.007274551548960666,
          -0.02038255552582615,
          -0.0007310058010273682,
          0.028172818721127025,
          -0.021590843454537604,
          0.04679672107805039,
          0.0481974895580409,
          0.07896488062577996,
          0.052203717354491135,
          0.030891170137664157,
          0.0661400794711361,
          0.05229606934859776,
          0.03451096491199496,
          0.054957714440937236,
          0.03399483522118014,
          0.051530477351476214,
          0.005499896613624442,
          -0.04632046749809287,
          -0.0679432977188427,
          -0.0343102316355646,
          0.03307914108958738,
          0.0038490048535066252,
          0.016977634706317694,
          0.014779081621700316,
          -0.039978609936743244,
          0.04333387369466674,
          0.045039508934354766,
          0.05664473028983428,
          0.048105913621249025,
          0.05065569403424133,
          0.04530133725422499,
          0.06578493219243996,
          0.06318752042496661,
          0.0476796968683899,
          0.05928851198714367,
          0.058115041512126174,
          -0.015300080065860602,
          -0.03659589143710115,
          -0.04366685517877626,
          -0.0491392368556173,
          0.08705078373865754,
          -0.021612687902728536,
          0.026116724287049795,
          0.012904112973017325,
          -0.05740199273460527,
          0.037839996586846066,
          0.06256761918406113,
          0.0440274444572018,
          0.045494730960040614,
          0.05087035139154465,
          0.05811605286308706,
          0.0647327604068837,
          0.062266054564994185,
          0.03977368331503555,
          0.04451567634490269,
          0.049762856100966826,
          0.0009110549346675669,
          -0.04118514417647129,
          -0.06909213512114354,
          -0.05839362153810737,
          0.1286622789087508,
          -0.0029731629474485104,
          0.055981113847394966,
          0.031221373716528222,
          -0.0737339418349788,
          0.05492995309833509,
          0.05886597958102452,
          0.04105408086861138,
          0.049055026348414646,
          0.0509406878780328,
          0.04413389812203397,
          0.06544585149773278,
          0.06653368538398735,
          0.06471619704048541,
          0.048317586557668435,
          0.041401719449778114,
          -0.010427973519956703,
          -0.05388195931256716,
          -0.06298649187142262,
          -0.029820172011991622,
          0.1094733767977536,
          0.007097897364735457,
          0.06721956036189733,
          0.00870187630016395,
          -0.09362926103694295,
          0.08243227918583831,
          0.03541766020554029,
          0.06480122080626957,
          0.053962056358490725,
          0.057058320066794295,
          0.058920296444105215,
          0.05853295105906227,
          0.03488754219788634,
          0.056087232624038544,
          0.04371607430508035,
          0.052810532222465505,
          -0.019837624265941864,
          -0.037621037395407994,
          -0.0694436301309794,
          -0.04019659120513537,
          0.07936934797145334,
          0.00041499503039717396,
          0.0712961010395048,
          0.028892311571520998,
          -0.06794196100964335,
          0.1174434451447946,
          0.04729688672323886,
          0.05586359661650778,
          0.05977945517116388,
          0.06054511031143755,
          0.06122861023522692,
          0.05228458073120529,
          0.05953551838371751,
          0.051057260099856276,
          0.03949352429540943,
          0.04335956339271745,
          -0.033299517913996185,
          -0.05630224827320155,
          -0.07564311156619449,
          -0.03062832598391648,
          0.08550448590568752,
          0.027419135066114066,
          0.07986858591893804,
          0.08144637474042027,
          -0.06608667379708462,
          0.11889830217086755,
          0.04911101979455905,
          0.03357403186237144,
          0.06058487587354419,
          0.04335968275120214,
          0.06668867108394054,
          0.04578742778512128,
          0.07594501568714229,
          0.05483059616236352,
          0.05638617477640898,
          0.060884904103127455,
          -0.01010517804442474,
          -0.04914519984609063,
          -0.09105133808801555,
          -0.011967335553393575,
          0.07930936699343566,
          0.03248785654733491,
          0.06600226521577629,
          0.037548876036374974,
          -0.08759795764625147,
          0.10846785270662973,
          0.05014051076855137,
          0.054938048368737814,
          0.05527165221143903,
          0.06539557898131888,
          0.05696444039191669,
          0.05615422788181597,
          0.0458542382420801,
          0.047986511256323965,
          0.06468642255313534,
          0.0652138013706916,
          -0.006511659543961107,
          -0.04696905755361218,
          -0.11298153883366495,
          -0.00524423261161325,
          0.034588050487641374,
          0.03907473302504981,
          0.03666875184870323,
          0.027198286987365136,
          -0.04002723606731152,
          0.11558349831769457,
          0.05991294513675492,
          0.052857263433676124,
          0.039710616481206114,
          0.05993747750699677,
          0.045917584216855475,
          0.05561304307245757,
          0.0326163298332718,
          0.05374512919510761,
          0.05453842556591015,
          0.06063011714346409,
          0.010862833616886171,
          -0.03310117571250489,
          -0.07571998467494159,
          -0.03198738103868307,
          0.027409556912688034,
          0.028553144277728527,
          0.008598339364769173,
          0.04252133184065467,
          -0.06448935856367648,
          0.11445312390092334,
          0.06541709728515553,
          0.06534237062164991,
          0.03923690003474251,
          0.05536615073651555,
          0.0708164310659603,
          0.047758678546823224,
          0.05440246113794614,
          0.0569094882411434,
          0.07241446219562267,
          0.05346904406601839,
          0.011625195015812082,
          -0.030464811989427947,
          -0.06753226650035915,
          -0.047510316324700944,
          -0.004469250936494272,
          0.016537806860176238,
          0.00809423225958424,
          0.03185463512563242,
          -0.045508819476629714,
          0.09883829346450933,
          0.04379935184647853,
          0.0584743635628619,
          0.07035721418628839,
          0.046319053302962536,
          0.05055400080992177,
          0.052070772534197896,
          0.05787151219380084,
          0.05571301860338733,
          0.06469700748640976,
          0.0681755345429196,
          -0.0097323271495248,
          -0.03313884993434713,
          -0.058535562695588475,
          -0.044939874932611215,
          -0.006947804953785511,
          0.01087465010430423,
          0.008339002499700255,
          0.042379346213735604,
          -0.05192101179722421,
          0.07928707991341714,
          0.07256756694601037,
          0.044815604476937373,
          0.061017506530116096,
          0.05033674545808712,
          0.04583960199224768,
          0.05902868701412082,
          0.0702643862600716,
          0.04567196813836059,
          0.05758276463889721,
          0.059541996444487016,
          -0.00033773736485630967,
          -0.0457752415467527,
          -0.05092537523093547,
          -0.03804624895779712,
          -0.01273130847238576,
          -0.01824493771550169,
          -0.0091510561439676,
          0.028950814775667827,
          -0.04054193974624103,
          0.08146004723827664,
          0.0669083500018506,
          0.06442450912584416,
          0.06901568172579504,
          0.05669171194187006,
          0.05655691670653377,
          0.0606396693118575,
          0.07805082745002363,
          0.06646742668993481,
          0.06283135020699764,
          0.05121865376696877,
          -0.006443437759756455,
          -0.03236763006856251,
          -0.03590097905208696,
          -0.023836344416372716,
          -0.016860263062264142,
          -0.006641447966953497,
          -0.020362012573076318,
          0.03501642460509173,
          -0.0567291325407327,
          0.04213649155819158,
          0.05591795221042117,
          0.06595590383849757,
          0.05280862558630352,
          0.079877277341071,
          0.043243672884387185,
          0.03489347442589001,
          0.04660622759164276,
          0.06340117189987092,
          0.04878632819590367,
          0.04964917196852234,
          -0.027060853613988144,
          -0.03454725396998519,
          -0.057716626719342315,
          -0.0242091731003543,
          -0.018638059148135603,
          -0.002390503092901583,
          -0.022344742912437328,
          0.032625976381060656,
          -0.02328546788994137,
          0.0239286376169091,
          0.056731272844885154,
          0.05225041130575631,
          0.056115226091490285,
          0.03687351686213292,
          0.05095278297366307,
          0.0679001116201056,
          0.04998202468834598,
          0.05690621788771152,
          0.06579357977850427,
          0.040109399328355104,
          -0.0295824263292232,
          -0.04396476128626898,
          -0.05544804859990303,
          -0.001504709896379985,
          -0.03989642401861098,
          -0.029665611920205837,
          -0.01902118447969895,
          0.016212968264465947,
          -0.021379151562704948,
          0.0182710780745264,
          0.049233692855670946,
          0.06488574308048399,
          0.05539620782418696,
          0.07102435935047113,
          0.0392662713493763,
          0.07619971095043904,
          0.046742786934520206,
          0.07644889503842961,
          0.04390712269217514,
          0.05768035454822667,
          -0.028226456267599447,
          -0.024681605370726795,
          -0.03721551385794089,
          -0.0008108821762662834,
          -0.029788660346777577,
          -0.00825759021185088,
          -0.026556921872935534,
          0.01013548027332864,
          -0.010892468227115286,
          0.032977670809871996,
          0.06381989271076238,
          0.051805192741648604,
          0.05735334157314494,
          0.0554543918931386,
          0.059026837172193314,
          0.046321044463878226,
          0.059842902840714335,
          0.04528389509692394,
          0.044268019000063136,
          0.06459651649612304,
          -0.027975082782125633,
          -0.05289335703123458,
          -0.038872213194726044,
          -0.01690872608191247,
          -0.05302971914073103,
          -0.024067148111826826,
          -0.030065407166301128,
          0.0179375829906334,
          0.005302174885759203,
          0.029825265502662367,
          0.052458418824562106,
          0.07872977766492004,
          0.06440764133266855,
          0.0466192677439186,
          0.05571702242486967,
          0.056199368512050145,
          0.05067607174033764,
          0.054495924937440335,
          0.05177503516357172,
          0.05984870495817709,
          -0.045595311994886846,
          -0.01975030062144354,
          -0.03143640414895799,
          -0.0016114682794918954,
          -0.035441430644745954,
          -0.009620149968167341,
          -0.02577136193420264,
          0.008655532983688508,
          -0.019719688239322974,
          0.01360157838107315,
          0.0655321032712504,
          0.04052848583362839,
          0.050682068767879236,
          0.06106639362090111,
          0.060324152768355385,
          0.04475944068144442,
          0.05776250916102681,
          0.047444020332473066,
          0.07376130503191547,
          0.05607437566015496,
          -0.02233369200703193,
          -0.04740487279906732,
          -0.038570562748979104,
          -0.001252550656160732,
          -0.05399024649472442,
          -0.019689024693904583,
          -0.030053179313555597,
          0.01925625155214616,
          -0.01846329098236037,
          0.017241025663489205,
          0.05463664996930411,
          0.06948276915969075,
          0.054890737744105196,
          0.057902359504913306,
          0.06296221618943605,
          0.05931334005596078,
          0.05532242166162042,
          0.05936081024121198,
          0.06306870911108799,
          0.06025567439985297,
          -0.02418525523221941,
          -0.03738500356978161,
          -0.04839833913257799,
          0.004030115625933254,
          -0.046707774659695875,
          -0.022830024199913874,
          -0.02607734847166024,
          0.00684087441663619,
          -0.011905879583419644,
          0.01641770972345077,
          0.03821577885335475,
          0.04780295562537981,
          0.04881890736737811,
          0.05724913448086363,
          0.029596674991206877,
          0.05901947768000267,
          0.05431945240316818,
          0.04516534784586241,
          0.058925957106513945,
          0.072191151736032,
          -0.023251323202362558,
          -0.02822160139370083,
          -0.029387379627174887,
          0.004434388052421745,
          -0.05446110157996173,
          -0.018232307882323353,
          -0.01143433197345644,
          0.009790563298902462,
          -0.007733136371196737,
          0.018548466816626533,
          0.06021803973414707,
          0.07217066348368092,
          0.06554905117216336,
          0.04377237445644071,
          0.057002966192116034,
          0.058313251408862524,
          0.05246420702164551,
          0.06446648053017173,
          0.05641794157659898,
          0.06530371783888768,
          -0.043023002183047956,
          -0.02722730219012972,
          -0.030386655458395362,
          0.01481276715140855,
          -0.035655257956800274,
          -0.008211923905406128,
          -0.0201182385349783,
          0.020844455189806866,
          -0.01200292470908795,
          0.03314423366765321,
          0.056608163713167375,
          0.07315643662566503,
          0.045574982301870154,
          0.058072507614789534,
          0.05801943883629819,
          0.05361127532155469,
          0.06662111517372088,
          0.04112376666472722,
          0.04465581831593278,
          0.06561925588878084,
          -0.036248759139712754,
          -0.05427635936146664,
          -0.03642398648191486,
          -0.0089048968235899,
          -0.05544477010545855,
          0.0008840086726221425,
          -0.02192847616119003,
          0.007534474617552766,
          -0.004276274893981015,
          0.02056087711663706,
          0.06586300434236574,
          0.05871266843862534,
          0.05142649447780991,
          0.06747662165038802,
          0.07466216287493072,
          0.041290640165941465,
          0.06839917347790744,
          0.04652219786045322,
          0.06000283146206204,
          0.0531884240261308,
          -0.04149009368593858,
          -0.02645012237578585,
          -0.0491400839125653,
          0.0023094286465794207,
          -0.054941946072769754,
          -0.019466944944944744,
          -0.02252060279791912,
          0.011561753219615726,
          -0.004118266564775894,
          0.03185891943180323,
          0.05001704114079342,
          0.05005675220947741,
          0.03843028774812611,
          0.06332912615296347,
          0.05644304882129893,
          0.04614078926616326,
          0.059321039215458116,
          0.0461360075275023,
          0.0534277059567086,
          0.06240976662132493,
          -0.011611365529800723,
          -0.037769022458806874,
          -0.018489991149191934,
          -0.014899473716468305,
          -0.02803306081697386,
          -0.008863686316278136,
          -0.014787905601132925,
          0.015847907173442453,
          -0.018437980389294926,
          0.005275833153392633,
          0.0709759122809111,
          0.046459507091589504,
          0.06676862620111083,
          0.04069367807022688,
          0.0688375698358806,
          0.06327097800222277,
          0.05687004830051565,
          0.055381239118028336,
          0.05621169725861936,
          0.08477257634242043,
          -0.026037416509040578,
          -0.024756471319343578,
          -0.038556318040804685,
          -0.010835080672018504,
          0.006398100368756071,
          0.009443443396745245,
          -0.03343815434460752,
          0.006275021550323361,
          -0.012691661829118007,
          0.019393373715982886,
          0.054695234294434125,
          0.047633918579174074,
          0.0635790466955107,
          0.05778534442656201,
          0.07171070710582791,
          0.05299246387835422,
          0.051958835262687984,
          0.05066601666392814,
          0.05325217942087968,
          0.06593999480290687,
          -0.013977379398223206,
          -0.031054061455743062,
          -0.04341494164012827,
          -0.01860928714471456,
          0.040827717306406615,
          -0.010494416881466339,
          0.014496794257156137,
          -0.010963287830305597,
          -0.03260691146539565,
          0.0019036994586151207,
          0.03535977576906095,
          0.05873233773126426,
          0.04571933187808139,
          0.06569705714504064,
          0.047388681134163634,
          0.04264980780041637,
          0.05702657432929587,
          0.04696897253485502,
          0.060116841197945976,
          0.05152075856447654,
          0.005409282273991676,
          -0.0318529841603891,
          -0.030914455592436153,
          -0.03616761048363465,
          0.05577825268296009,
          0.021151397424787995,
          0.013278475762694825,
          -0.040217279366897535,
          -0.07484553193934018,
          -0.0005255748377731735,
          0.04758021545015529,
          0.040593028160691984,
          0.06063191565580549,
          0.07535414764773049,
          0.05286900651409168,
          0.0392098809847888,
          0.06452975851715188,
          0.05116005471817622,
          0.06230050488466515,
          0.058673042069523625,
          0.02026919157499899,
          -0.025126314536904233,
          -0.0350323316630415,
          -0.020797285042098632,
          0.09946785585853729,
          0.03492571533372507,
          0.06190994453960852,
          -0.034031757675189046,
          -0.10522648258757607,
          -0.016817267948583386,
          0.03766939182029085,
          0.046687678304135435,
          0.04191043942251781,
          0.0511104617718553,
          0.04752961568751673,
          0.03818409568072065,
          0.05802969527736309,
          0.04117629079111083,
          0.033422024265573544,
          0.05106481221740618,
          -0.000829957774215584,
          -0.05954049457039356,
          -0.017573608811535493,
          0.02431307008324028,
          0.16899059465797414,
          0.03261066811083883,
          0.10332384568087777,
          -0.05022818337328194,
          -0.08929127051970238,
          -0.03140960103183551,
          0.050476516886205455,
          0.05634448098906055,
          0.04657150600728377,
          0.044664266796250955,
          0.04105761237890965,
          0.05870282297341122,
          0.07814032819631797,
          0.041109486823218,
          0.0341365761949969,
          0.06242595888204108,
          -0.028834459710690742,
          -0.029170638716119163,
          0.014669667130936632,
          0.06378992360488722,
          0.21036882216603361,
          0.038031486589894664,
          0.1483129066195805,
          -0.06965564549294147,
          -0.10890996358399452,
          -0.03078277938179111,
          0.05849645600846103,
          0.057576641027394314,
          0.0631312131123165,
          0.050021678218541706,
          0.060124179780885016,
          0.03067198781433514,
          0.06175786699756231,
          0.0409340065073022,
          0.0597569315451845,
          0.03706769151694216,
          -0.045269411104048314,
          -0.029046739475565624,
          -0.02067198925309306,
          0.0577600348984319,
          0.23847292774362597,
          0.03828595955590524,
          0.19577915759498365,
          -0.04486578481501286,
          -0.1332988442045608,
          -0.035644787901965964,
          0.05522704747060899,
          0.04512043937952464,
          0.036814671853716736,
          0.04474831960570535,
          0.04242043879526079,
          0.0495346510934415,
          0.05522175038524633,
          0.04831828759885623,
          0.04641784075091154,
          0.051932953427773494,
          -0.04000939635399432,
          -0.023346484794992604,
          -0.04129907591741165,
          0.05186805808798686,
          0.2408326590121249,
          0.05360623052072838,
          0.23903467949474583,
          -0.021280653143658502,
          -0.12074692920980877,
          0.010688218612464414,
          0.04208206369107148,
          0.06801846008069005,
          0.046185451333971096,
          0.05794664939921054,
          0.04203395814796831,
          0.042711654862315755,
          0.05310563675591184,
          0.053121104531921405,
          0.04514660116450869,
          0.046029852344787396,
          -0.02015812041367252,
          -0.03664427401190808,
          -0.07083684742030877,
          0.08304393732316741,
          0.227119471580767,
          0.10322362794323275,
          0.2527729425694115,
          -0.0129033310545946,
          -0.10712912627331156,
          0.0989437467731633,
          0.0554885350312067,
          0.026007058715621395,
          0.03908623006796719,
          0.032891072756963124,
          0.03487128385759906,
          0.03933144868003742,
          0.04168557115100033,
          0.06122253665991815,
          0.06432636030154135,
          0.047451013548764284,
          0.020828316103014482,
          -0.0315687376670009,
          -0.1158923908714498,
          0.04660208542243949,
          0.20853976789896725,
          0.0884995245079025,
          0.23207340396641554,
          -0.0163085509341804,
          -0.12535236531831956,
          0.14203305874883976,
          0.050437000995021526,
          0.04985752167405432,
          0.07789066141321868,
          0.05684779191561445,
          0.04304671948475437,
          0.05266776908550917,
          0.06602091582114271,
          0.05026642417839791,
          0.06182284205870732,
          0.05378044709908395,
          0.0800982182980109,
          -0.028825036799403646,
          -0.13212819011671426,
          0.0380859846563856,
          0.10302661282933329,
          0.07685097285522363,
          0.21191161961301128,
          0.010354078473301461,
          -0.14011151080220385,
          0.16477930386839126,
          0.0643040885692267,
          0.04708266005499838,
          0.05709364346200431,
          0.058934646553229685,
          0.050260723996728936,
          0.04109000607899829,
          0.05041901069326389,
          0.040837482936937924,
          0.052504914576460844,
          0.0535352681396408,
          0.10385232521488517,
          -0.024175411671797514,
          -0.17001653303322406,
          -0.022825306979959,
          0.05489794685966399,
          0.08845412427260814,
          0.16538333902439883,
          0.02948170350348914,
          -0.12522303377947244,
          0.19651436814199205,
          0.04938445573775502,
          0.038042529027532405,
          0.03703648189853206,
          0.05109704358768258,
          0.060499118689635305,
          0.05981304579320188,
          0.06311076809392163,
          0.05038022338637702,
          0.04528710844764025,
          0.05436587400896653,
          0.06959526626582928,
          -0.0289218835966484,
          -0.16667931940202452,
          -0.08178257852002645,
          0.0009781768555272787,
          0.07385988725332973,
          0.09293548973512712,
          0.03759698874202841,
          -0.09002977867787458,
          0.20265300736364728,
          0.06463765567919547,
          0.05454018112932442,
          0.039667086699987635,
          0.06099175250155041,
          0.06155415442277769,
          0.05604690587862328,
          0.06921969041807112,
          0.04522543874461154,
          0.049737615958243865,
          0.062243304121702266,
          0.048399122271430714,
          -0.039654840992221926,
          -0.15222447066742403,
          -0.07696742916775752,
          0.025934827042366656,
          0.034426981684781185,
          0.03857072778243307,
          0.036403691845354955,
          -0.09257604342088456,
          0.12944759555311297,
          0.042833661873325594,
          0.03670680429470845,
          0.055961665458016195,
          0.05149917098870009,
          0.06952327304815469,
          0.050337807478803794,
          0.05731376172772876,
          0.05370180334583736,
          0.07164219795055336,
          0.04500903706266566,
          0.024432430164048714,
          -0.040389601219459594,
          -0.08222835030169132,
          -0.06636066808649842,
          0.0016881076689883876,
          0.020147787973799118,
          0.022875375844394526,
          0.026587783728513854,
          -0.06181389065283782,
          0.08796851095065591,
          0.050122063746786925,
          0.05339921575307032,
          0.058887797653617145,
          0.059874358108509176,
          0.05979634155358967,
          0.06116182453981333,
          0.07161869000463614,
          0.07918865104147113,
          0.04606297250061712,
          0.03730909319311602,
          -0.0016043608263627543,
          -0.028954454446538606,
          -0.04613038956028465,
          -0.06762144798764848,
          -0.05255176208402625,
          0.01605968694222065,
          -0.0014594964770785087,
          0.051922350703610794,
          -0.051947391751795566,
          0.06818802145479512,
          0.06443719979289743,
          0.05103996660248202,
          0.06309512887404523,
          0.049796965143036165,
          0.042348545071078506,
          0.06244839770746005,
          0.04005835639853688,
          0.05168218305230723,
          0.07812994624276687,
          0.04982840470618446,
          -0.004571442888795352,
          -0.04406264116263918,
          -0.043865107052333235,
          -0.05224738621309981,
          -0.03286458512534394,
          0.0005733971343740488,
          -0.015757274403972437,
          0.03752774218076145,
          -0.03778811457245922,
          0.04367468698390333,
          0.06565489002518912,
          0.04597445142765002,
          0.038422291618486204,
          0.04958628434803867,
          0.05684947057671762,
          0.05259559916298711,
          0.05165330698580606,
          0.04802885881174288,
          0.08213576733545054,
          0.059237975992611984,
          -0.021213963569243873,
          -0.04681541043006277,
          -0.03637714085657984,
          -0.0328361968104179,
          -0.054529534605815624,
          -0.016965228661982953,
          -0.0368858031405655,
          0.023633527964909164,
          -0.035080489702940074,
          0.04231615095023284,
          0.04894285223473278,
          0.0528927331102624,
          0.04554859115965359,
          0.06525473965420335,
          0.06325914747454323,
          0.06567904940698138,
          0.05029887571601131,
          0.047166005779922054,
          0.058297823640079266,
          0.05492111172505178,
          -0.01831144465408711,
          -0.043854690750554925,
          -0.030693824880734105,
          -0.009294213268456645,
          -0.045723288951447366,
          -0.007491839843351679,
          -0.00710408300816286,
          0.006619238141827614,
          -0.00866803499971235,
          0.025442510604232468,
          0.05655739981781154,
          0.06272126760611828,
          0.04448865859162833,
          0.07539722459848092,
          0.0647503084629501,
          0.05556789709495303,
          0.05683641974830418,
          0.053494887504063504,
          0.04857770835173124,
          0.061145826777305436,
          -0.03093319168779553,
          -0.04635956557130432,
          -0.029645490123290118,
          -0.009761296094061254,
          -0.044875955558447936,
          -0.007483345070765777,
          -0.021756327410342828,
          0.032800447916537384,
          0.0014994757556542914,
          0.022202591965160823,
          0.0499557531797695,
          0.05416069009741972,
          0.05345978104189874,
          0.07090603568023214,
          0.06851046493064655,
          0.036203761081693236,
          0.05685400637055421,
          0.05179420139718278,
          0.0795547512046712,
          0.0564412794721964,
          -0.034225646600614716,
          -0.06670434955847918,
          -0.04189578281525698,
          -0.003179703673867675,
          -0.05698833610811191,
          -0.015069870986377557,
          -0.033738487998318994,
          0.013679697507816103,
          -0.022415117431704146,
          0.038010075859466856,
          0.06208126028480732,
          0.05876402807729835,
          0.04988857195391009,
          0.05102003538204622,
          0.05054309546722156,
          0.070942804693732,
          0.05223041881325095,
          0.06207235013453802,
          0.04920582902531387,
          0.05896077934866315,
          -0.03643898891597589,
          -0.044763839703704206,
          -0.04714218124538018,
          0.0035705683111168173,
          -0.0567741677419929,
          -0.017891132398769747,
          -0.03289583401106668,
          0.02044376626531386,
          -0.01219746726200123,
          0.02966994551525031,
          0.0614698748571509,
          0.04020418926037978,
          0.05099834067033788,
          0.07479453958849579,
          0.05394644274208722,
          0.05482740428378226,
          0.0575865384870016,
          0.0729678695063624,
          0.05904513336892052,
          0.06389596771626875,
          -0.002556018104875393,
          -0.04027286854806036,
          -0.04577315752440375,
          -0.004834201630361405,
          -0.054761581622218974,
          -0.007004837936141729,
          -0.02789190845394184,
          -0.001103631061965145,
          0.01019303444799017,
          0.007412700051150302,
          0.0323110016680068,
          0.05398089081771018,
          0.07697465728789092,
          0.0514407080949605,
          0.04359826002113476,
          0.03911168912865416,
          0.06714049864711617,
          0.06403300738597897,
          0.06649155011092431,
          0.05622390103971395,
          -0.04478387460086287,
          -0.041335339448524376,
          -0.0381196691418402,
          0.0017819821256751175,
          -0.047962143619231706,
          0.005555938614782918,
          -0.016303860626185804,
          0.01889626896044742,
          -0.020180209585312223,
          0.026141363052895238,
          0.04032262362339176,
          0.04603713910034575,
          0.06152366969751171,
          0.040482515183491614,
          0.07561332895681606,
          0.054960133102942454,
          0.08066131243287805,
          0.062173533561422085,
          0.06369651357781948,
          0.04987737169891512,
          -0.032788368766903074,
          -0.052975915733180674,
          -0.03914990778945868,
          -0.0003434769722647233,
          -0.05081383304811762,
          -0.015903462052897492,
          -0.029248905401089677,
          0.006911116168810657,
          -0.008802588836499307,
          0.02977132119494752,
          0.06426976523379942,
          0.06884579201417959,
          0.05373993263653525,
          0.04928544162550169,
          0.055175293208423695,
          0.07101256280851484,
          0.042908177655091584,
          0.05834222987183785,
          0.046311410769958275,
          0.05370013290242922,
          -0.034861319353413155,
          -0.04190096410149721,
          -0.02627225190671177,
          -0.011219984992224256,
          -0.06708213201510455,
          -0.021634530168187418,
          -0.021899992653079202,
          0.030571393434319884,
          -0.027477791979060414,
          0.035965519556918436,
          0.05325595014571953,
          0.061180098531666935,
          0.052969006603472424,
          0.0631457065010742,
          0.06863694026255844,
          0.04806381822121292,
          0.0445859497796498,
          0.044547882115573985,
          0.055875072485815296,
          0.05797285790640264,
          -0.05925587531011829,
          -0.048954605080122074,
          -0.033343226137088997,
          -0.005532658592963322,
          -0.04626608339038457,
          -0.0066391901004869995,
          -0.03177350070796384,
          0.003849004056076547,
          0.01820425555370136,
          0.013124978459160575,
          0.052281575054611534,
          0.06783475429588572,
          0.04790404398869223,
          0.061882848942863035,
          0.04072743221026074,
          0.05779634732606208,
          0.044733331081719584,
          0.05003595302865015,
          0.0470184396237361,
          0.07179267871693479,
          -0.04707456176834275,
          -0.05749468396578937,
          -0.035664467343431844,
          0.03674504479276561,
          -0.013418820222770285,
          -0.0005644810753247506,
          -0.017166771614358717,
          -0.02465151776768507,
          -0.014777395894726389,
          0.004680764797978339,
          0.04964733429937481,
          0.04730922660221637,
          0.047865919402334915,
          0.06543735053368538,
          0.04978057701876394,
          0.06457143084650521,
          0.05518793608448442,
          0.06651543041380759,
          0.06735046991936543,
          0.039159090209899744,
          -0.043520676181936405,
          -0.03656796269574892,
          -0.023432298181418496,
          0.08401795078056123,
          0.010531169997259135,
          0.031745266042614885,
          0.009186837173573117,
          -0.06692829819457985,
          0.004138678385394741,
          -0.03350724933753308,
          0.05275244636360997,
          0.04830590512625636,
          0.05763545438415355,
          0.043752102001049134,
          0.05102819512949701,
          0.04511932806548429,
          0.04137387395204296,
          0.04865117328505634,
          0.06005082036573893,
          0.06009060865473749,
          -0.025890531086627606,
          -0.04023093484292142,
          -0.05760560871517156,
          0.10067575675676696,
          0.07633310989211906,
          0.052008737151852086,
          0.06159853159085043,
          -0.09167168855372258,
          -0.026354388809748105,
          -0.07530358671529613,
          0.05109759612088285,
          0.06464385254590749,
          0.05623120701370027,
          0.04249357536334285,
          0.04205309080506781,
          0.044175421802923,
          0.03587811962826701,
          0.04710954407153935,
          0.06511618954054456,
          0.057894131165448025,
          -0.03079157214206774,
          -0.03761649732154965,
          -0.04548538137620818,
          0.16092293247992165,
          0.11995429262658763,
          0.0770838302385206,
          0.06985387392496953,
          -0.1227416084254598,
          -0.011170498532859376,
          -0.10032227726879556,
          0.05741241148490828,
          0.04027613629219898,
          0.06248424743779686,
          0.0353039576940848,
          0.057421899190095695,
          0.05633104004664432,
          0.050181472573578016,
          0.029203665526092472,
          0.04170555116388756,
          0.04275207880618009,
          -0.04090222269608991,
          -0.024675414161663186,
          0.015982908718571703,
          0.22882384842612688,
          0.15930053477997547,
          0.09881075725237763,
          0.09742292849909207,
          -0.11886213313663861,
          0.026692106509087498,
          -0.1500985351563189,
          0.052296059766226144,
          0.03871078263649839,
          0.041805798380007135,
          0.039527588827419136,
          0.06667987302246944,
          0.05658694352597881,
          0.05161493378970376,
          0.041528408994562706,
          0.03843439766440225,
          0.0458765197742231,
          -0.07103927259522873,
          -0.025687955101195196,
          0.06047136372253471,
          0.2909373203753164,
          0.22336490392085184,
          0.12089593481661727,
          0.11867301831188123,
          -0.16219044702415727,
          0.028616259096030706,
          -0.19044897099590863,
          0.052886465144640855,
          0.03550882005147321,
          0.0411837969064996,
          0.03929829961497311,
          0.02681510417257738,
          0.02779965717611122,
          0.039037062345704455,
          0.05955234382369877,
          0.047807858623236846,
          0.05320749720075186,
          -0.08028392975379872,
          -0.0059972626531115195,
          0.06083225612948922,
          0.33038187478646136,
          0.27646422434061385,
          0.09662084750380467,
          0.14797160775341356,
          -0.2173014672251229,
          0.01411039291696719,
          -0.13053969840607024,
          0.021716285138872,
          0.04427561402060866,
          0.0471974099066806,
          0.03699864276609749,
          0.038698140523030326,
          0.02078295781274628,
          0.03432112745192314,
          0.044910504331565036,
          0.04101556232392303,
          0.03498901174529044,
          -0.12563265474224147,
          0.0045742760745022095,
          0.023127650168962493,
          0.3513698551712717,
          0.35179306072345434,
          0.08460648596503462,
          0.16564560215671273,
          -0.20574083903906873,
          0.026263415996931546,
          -0.04687561902806924,
          0.03722386651993092,
          0.034931538101224985,
          0.023314813005238397,
          0.038563084918803774,
          0.02640463454159116,
          0.05358038593728721,
          0.03690382397703663,
          0.031186732675634463,
          0.043426904772602595,
          0.038162492244330146,
          -0.12590549669908718,
          -0.006008324167174923,
          0.01788594433511223,
          0.26063097016974557,
          0.3713754068706355,
          0.07737963349192972,
          0.12737309844728512,
          -0.18877972640531573,
          0.022069681827490337,
          0.01322211989442392,
          0.028428947845519022,
          0.04786897162098045,
          0.021694096473553432,
          0.039904645844513545,
          0.03772387642969925,
          0.04243317516945123,
          0.04031119713607996,
          0.04868682481992937,
          0.04404132024314566,
          0.04295730281488647,
          -0.05643026689772652,
          -0.0019604055471012186,
          0.028749628777662798,
          0.19361094276181073,
          0.33885967946961215,
          0.025553374085199112,
          0.13454175172348184,
          -0.14359485833407057,
          0.02665251100675706,
          0.04210843693786784,
          0.013492375444881919,
          0.04037324252955869,
          0.02682934891038949,
          0.03142406487430523,
          0.045383791178206616,
          0.04436166608723958,
          0.027198828576957115,
          0.04374551100169469,
          0.03659640808361561,
          0.04380138224282782,
          0.05817521469996927,
          -0.015160273018612256,
          -0.027649919951191253,
          0.15564027026661245,
          0.2679522950619967,
          0.01386983533090233,
          0.16861726229771162,
          -0.09493851882507644,
          -0.010335663821293544,
          0.06993077465638672,
          0.019592626900176952,
          0.030402254971923073,
          0.033598859590917525,
          0.040043363608035974,
          0.028716631450806804,
          0.04145290355149053,
          0.0434660953659331,
          0.03002920365871106,
          0.046031990792675885,
          0.043772539602547345,
          0.1517098907861866,
          -0.004002150658384369,
          -0.08066132675452571,
          0.14324996153683545,
          0.19546093512714421,
          0.058954447203459576,
          0.13410844770864472,
          -0.07218885770262433,
          -0.01685954154242301,
          0.11844192478418852,
          0.03807230380678019,
          0.01962754236351565,
          0.04522557093182799,
          0.04254148882286855,
          0.048228921534538546,
          0.044741416736572996,
          0.04935802363869308,
          0.04323342754053909,
          0.05805575003905147,
          0.038322533245769425,
          0.07635946491905622,
          -0.018846180502960143,
          -0.11480868534541584,
          0.11559497038163694,
          0.1466913036375849,
          0.10220261646221265,
          0.13001500519052292,
          0.01633887249596027,
          -0.04422580685856324,
          0.102453501098696,
          0.03583987158454468,
          0.05275886773446864,
          0.03708504572569482,
          0.04388979400100464,
          0.07260983003706029,
          0.02795736337482686,
          0.03979616713826154,
          0.04457677480654318,
          0.05772777628579942,
          0.01883458533818701,
          0.01675189849946361,
          -0.018519098524424096,
          -0.16464904470200198,
          0.09566804749379523,
          0.06631332896137307,
          0.02746172012930266,
          0.10547492464913787,
          0.08288949770716023,
          -0.05803897306072204,
          0.11566889837712213,
          0.04864479993424389,
          0.04354464618224621,
          0.046740547794642755,
          0.06076521548062197,
          0.04715878317402653,
          0.05709654866348125,
          0.06630762640193195,
          0.03458618999689574,
          0.06077496137843288,
          0.043898913145545816,
          -0.004505610208584002,
          -0.042701205145882264,
          -0.14880749919201391,
          0.017184603154406442,
          -0.028677028543659406,
          0.06298423178673083,
          0.041192108166409704,
          0.1273705043870784,
          -0.06436075313272228,
          0.10283873247430317,
          0.055807460872981135,
          0.06415958870498656,
          0.04353142310688284,
          0.04483167579032934,
          0.06265968783698787,
          0.05923561535846858,
          0.033310776006308336,
          0.06662841681432954,
          0.057486600744980534,
          0.045533209885910066,
          0.02249171354067902,
          -0.02200754554127718,
          -0.14480390314222702,
          -0.10312902282999989,
          -0.061088339662500865,
          0.008905725915817451,
          0.018158056603280275,
          0.12091246085156974,
          -0.04709494375021123,
          0.024382154975573667,
          0.053759752965735715,
          0.04862987774317099,
          0.05824156102622839,
          0.05495068526786827,
          0.06543671663798521,
          0.040191428428175434,
          0.06746610102130107,
          0.04413917799568594,
          0.058357890889687965,
          0.04238281810240488,
          0.035852942673546294,
          -0.04708503688540832,
          -0.10421664520773861,
          -0.10954917071830514,
          -0.09608439156691702,
          -0.011344803795648931,
          0.0007046660168390784,
          0.0720924469305666,
          -0.035335271968704667,
          -0.0021884404537399977,
          0.07306834530655275,
          0.0729255747901018,
          0.05436627460564848,
          0.06722099599214984,
          0.0699797203171966,
          0.05478216175779107,
          0.05860227353713265,
          0.059597550474423194,
          0.06265191435399509,
          0.059171297876074336,
          0.03525906476182244,
          -0.03391867691587501,
          -0.07660409326212222,
          -0.11780940707853627,
          -0.10327891123067916,
          -0.023677804455842073,
          -0.02254406012566865,
          0.03919115459769333,
          -0.03095779526613272,
          0.006872979509013615,
          0.04256069381250824,
          0.04403159345130214,
          0.06207909483805286,
          0.06992927082654343,
          0.04018543042663536,
          0.049539963120150694,
          0.05097480380554554,
          0.054796279973148294,
          0.05877640077470542,
          0.05375546392128943,
          -0.008092073742817577,
          -0.03643962422657624,
          -0.029911341859947687,
          -0.058895602177591,
          -0.07231101448659055,
          -0.004812611459989508,
          -0.03833261733349393,
          0.020702529704015763,
          -0.022696513900606802,
          0.012462937789210001,
          0.041174756017772644,
          0.06253655259857174,
          0.04296480734831623,
          0.05295113256568281,
          0.05792004255098252,
          0.04422895166207989,
          0.06504462415445902,
          0.05430764504758787,
          0.046332035937412086,
          0.04472387588513441,
          -0.01623167072895468,
          -0.030665145797970084,
          -0.018510912094731755,
          -0.008874903021517756,
          -0.03240203909875774,
          -0.006862289957603609,
          -0.01405945638194861,
          0.008852809187887284,
          -0.02105778595732247,
          0.010047916459549737,
          0.04867895508783276,
          0.058438664020292484,
          0.061533891594479986,
          0.06907079720735647,
          0.05397739847072415,
          0.0680394562068635,
          0.06276898710310741,
          0.0695151020671783,
          0.06509110221923206,
          0.05585625687512823,
          -0.025859030157675145,
          -0.03950214209414256,
          -0.02918463087964305,
          -0.03085925894493374,
          -0.037832174157002345,
          -0.025694417734737265,
          -0.03041636163261966,
          0.002555568975543832,
          0.0047878596856217575,
          0.026667176958104336,
          0.041496211421073535,
          0.054615685683574014,
          0.03591822347573207,
          0.052854357588664136,
          0.059581566957079515,
          0.05172626491233104,
          0.034983762056534626,
          0.06005945385836734,
          0.05618367341014096,
          0.06123481584836891,
          -0.03792257632845351,
          -0.0378884099696128,
          -0.04527825571527466,
          -0.011762092444793294,
          -0.04572647529846137,
          -0.013718268515609694,
          -0.018858953400272167,
          0.024049156072890692,
          -0.020889656239691256,
          0.010424291097566091,
          0.05476655722689806,
          0.05529207009833498,
          0.07768929422604821,
          0.06633503667984363,
          0.0674033104259691,
          0.05189316867539625,
          0.04909117499415108,
          0.04465116915972061,
          0.044978018450127236,
          0.05776838706906954,
          -0.025038156918430445,
          -0.03518930991301517,
          -0.041072284659002145,
          -0.019078447030954106,
          -0.042634610526040326,
          -0.005433569111745066,
          -0.028588875679889814,
          0.01613013958284517,
          -0.008482479797600258,
          0.006352343428547004,
          0.06179430765422594,
          0.07493962333045187,
          0.054767073181534,
          0.06271612487317826,
          0.03283239930862743,
          0.07943849625056469,
          0.06407803087082085,
          0.050697367912480716,
          0.05353058165984198,
          0.05844406070706027,
          -0.01494817695173076,
          -0.045333963249924246,
          -0.03492918487702916,
          0.002053452361669331,
          -0.07118704260445965,
          0.004390399984854292,
          -0.0161359045530247,
          0.01861016890603773,
          0.006370645695691987,
          0.01918161353310067,
          0.049732467197328385,
          0.05658831837412504,
          0.052542590275202465,
          0.05942920364207414,
          0.0659984393175444,
          0.06829830834552097,
          0.057281061868417534,
          0.04430331330505183,
          0.050878984906363785,
          0.06353905096630875,
          -0.023730261624317375,
          -0.06885394226316925,
          -0.041279004879131456,
          0.0069161799498245816,
          -0.05034596097646135,
          -0.01395927177149363,
          -0.015830106462581577,
          0.010259589205144887,
          0.00284587848556557,
          0.04042783264786178,
          0.05467068109079857,
          0.05063614901864058,
          0.05064476865370019,
          0.035645247550173675,
          0.07386343605168279,
          0.046234617421870856,
          0.05118230365257649,
          0.05862389012737215,
          0.07034937349257858,
          0.037733973906936794,
          -0.034900371920161384,
          -0.03536609713400698,
          -0.03591210673553283,
          -0.010423008343570624,
          -0.048459289349835795,
          -0.028828287533061103,
          -0.015106532260949927,
          0.01132249889331977,
          -0.005684153407042457,
          0.019775171833724167,
          0.05863604223730126,
          0.04316419561147545,
          0.048859541398157035,
          0.05242266889363726,
          0.04676286921116896,
          0.05568145676257471,
          0.05636355711809479,
          0.050160215686086314,
          0.05443179959858157,
          0.053244489850925426,
          -0.034667766251687875,
          -0.0353222369839188,
          -0.04983556028190034,
          0.020618146430089027,
          -0.05597996017654467,
          -0.006698923641250419,
          -0.01173602849652916,
          0.014679980372243134,
          -0.0030550259460094225,
          0.010379014115542365,
          0.0556786547978259,
          0.04869622043312121,
          0.058589749303701096,
          0.05292691736541785,
          0.054882713717125234,
          0.052050279983738505,
          0.05956187906023708,
          0.06620745664347762,
          0.059752500313378865,
          0.041622392776743115,
          -0.08864929605553665,
          -0.04464194016335689,
          -0.03021786711258624,
          0.06346483042173931,
          -0.05481324011709852,
          -0.00487404298904198,
          -0.028464418599485317,
          -0.013900420403135981,
          -0.002664088968572162,
          -0.01725119910269802,
          0.05004189503072309,
          0.04430950380443317,
          0.05704968994154813,
          0.06539340971211972,
          0.034707832920527655,
          0.046756462359569546,
          0.06049631070408044,
          0.055544495330326654,
          0.05091255917833731,
          0.04814289475349947,
          -0.09355128354525516,
          -0.03969347577299703,
          -0.018638661286487553,
          0.12155467280356676,
          -0.026662335853842232,
          0.024276566203731312,
          0.007934654255393813,
          -0.06261276103818589,
          0.009636791263944254,
          -0.061933039402868754,
          0.03673226925601007,
          0.058180815531369015,
          0.053045367080147295,
          0.05382983630585316,
          0.06009823472541205,
          0.0618245107390963,
          0.05330983772238833,
          0.052184203372129125,
          0.05114243859014541,
          0.06264466495647503,
          -0.09969849676296869,
          -0.053819874834584384,
          -0.05011306325758845,
          0.1571427552492116,
          0.01673589905443171,
          0.06261219479866356,
          0.04024147315147382,
          -0.07165771075066961,
          0.013452296029955546,
          -0.13270879599817106,
          0.03957709470343762,
          0.05404342375128692,
          0.04095359280597794,
          0.04571519991519599,
          0.0588459657126651,
          0.06651968846168216,
          0.052830014104832596,
          0.05204159702757126,
          0.048669864582231145,
          0.04988915895007459,
          -0.07188750371115737,
          -0.04716328895954501,
          -0.03926708454610092,
          0.21833570073220274,
          0.07375047287312839,
          0.12520504373221458,
          0.07529049038801511,
          -0.11300735019701093,
          0.030063629460645325,
          -0.17319215643651487,
          0.05664088622599108,
          0.031111975974860002,
          0.04747253445856642,
          0.04610122060134079,
          0.050632894959443744,
          0.044284047792854976,
          0.03837180454458856,
          0.04063638997964572,
          0.029440717546753273,
          0.03609240946336455,
          -0.05544666758023743,
          -0.04099265636222578,
          -0.07589077522612245,
          0.20949592396562042,
          0.10775502256074979,
          0.1442392548880067,
          0.08624754907728936,
          -0.1132916750373986,
          0.10038918971100262,
          -0.20122028013126048,
          0.03788495816668535,
          0.0405714979354312,
          0.048273993864778195,
          0.04742662496532253,
          0.04504353158351818,
          0.03164385000543883,
          0.02744357368188803,
          0.04940968548781097,
          0.047236244377629855,
          0.02790108264322455,
          -0.06342474834700708,
          -0.022593356086102183,
          0.01245730842260295,
          0.2210102928508068,
          0.13905388530731064,
          0.1670990848943367,
          0.09682492707056069,
          -0.18946109728737573,
          0.10880983136604878,
          -0.29706671652859634,
          0.041636986239129224,
          0.03800976376664911,
          0.04794676495017842,
          0.040091726650867916,
          0.01677688883193588,
          0.015461266448276383,
          0.028089006908159787,
          0.04558236894848642,
          0.027926575168968747,
          0.031131053997260544,
          -0.15142994339149765,
          -0.01706437513038787,
          0.07498450708455985,
          0.26131981013255773,
          0.15453370422543128,
          0.12497607585153007,
          0.080360076707237,
          -0.22728249738618173,
          0.16219625551286973,
          -0.2897225181908989,
          0.04160047647237388,
          0.038567704676354696,
          0.01993333837180901,
          0.01784184556420213,
          0.01745721242853941,
          0.027732593183740266,
          0.043166937058418585,
          0.007845447966071591,
          0.010598569419581576,
          0.026776961655082053,
          -0.15464097722204218,
          -0.027060511266558212,
          0.14394690283390993,
          0.25753122607490775,
          0.3252681099090509,
          0.07955603625640666,
          0.04951969434990367,
          -0.2691453659933473,
          0.15425474947755266,
          -0.19306560662373734,
          0.004831001952065709,
          0.03415002871566398,
          0.01243659114052046,
          0.028870953397908204,
          0.03495646461210362,
          0.004826062684555116,
          0.028124496397652028,
          0.02108128229655689,
          0.013172195996224217,
          0.01123654032365196,
          -0.17262756135018226,
          -0.025299509125405215,
          0.14698190087433433,
          0.2552121544969852,
          0.36220907417813913,
          -0.014735338103512411,
          0.02058442449965805,
          -0.3262151092945597,
          0.11920707749722287,
          -0.14651949268954645,
          0.008752480797767002,
          0.024653989414181045,
          -0.002149072111027141,
          0.021718318305260775,
          0.011774088883069654,
          0.013533940459441469,
          0.00576360674223821,
          0.02785301143515255,
          0.00602836566141622,
          0.02365154642317209,
          -0.2007554992351865,
          -0.035205299015739676,
          0.06311807956845766,
          0.1095884425107118,
          0.36453193924108834,
          -0.026022045884128917,
          -0.033500318277767706,
          -0.2909997562924667,
          0.10464597115922569,
          -0.06326299393122428,
          0.005922210838512839,
          0.02258723675814324,
          0.007881320284036883,
          0.025074462498038026,
          0.017215551931247925,
          0.024606726402119507,
          0.006621840949052787,
          -0.0007964373112820537,
          0.006873042401160612,
          0.013540164524973293,
          -0.1556948678249104,
          -0.02843044319729906,
          -0.0286511900427828,
          0.060856927394494054,
          0.2994132210372093,
          -0.11870657936088316,
          -0.0036475339659521678,
          -0.31475272056412934,
          0.02029883071999285,
          -0.05122056946365824,
          -0.003817574333993826,
          0.002886485957126155,
          0.010372835231785739,
          -0.0022468849251977316,
          0.011038144420001835,
          0.021512086391482686,
          0.005350246472472131,
          0.01458782207019316,
          0.011585461549576136,
          0.03120037816532684,
          -0.05722519889590012,
          -0.0037955158837819727,
          -0.14008841848620474,
          -0.035093275992540814,
          0.34775660285265986,
          -0.1358599720520649,
          0.030618292926106672,
          -0.27493652522571355,
          -0.033617586047098066,
          0.019840686620856807,
          0.018017131961778936,
          0.021673786497731776,
          0.02478008053774233,
          0.008876101945010935,
          0.01443622280413669,
          0.0017843931408206908,
          0.008987903248059821,
          0.014463864118264613,
          0.019844807051805198,
          0.013060372777550778,
          0.049968812071121846,
          -0.023334237923300655,
          -0.1414808468746411,
          -0.03739379699962391,
          0.41247786907200373,
          -0.07204860716035308,
          0.048330946609396214,
