{
  "layers": [
    {
      "weights": [
        [
          0.11005787105542049,
          0.21765592922891727,
          0.011149107628704117,
          -0.060053401009398,
          0.07685302473335533,
          0.09027611040659721,
          0.00319508146062761,
          0.13881159084501757,
          0.13339201890846678,
          0.10170774971362158,
          0.0025244485807938053,
          0.028884435723150432,
          0.12327657370282084,
          -0.3217926682354121,
          0.017575162825218205,
          0.10352482318141075,
          0.03583145163175258,
          0.06261337471183206,
          -0.028216470954548458,
          -0.04206851410163515,
          -0.1742099485447257,
          -0.1356195188976923,
          -0.08869518691148695,
          0.12493753382614257,
          0.09580450210004907,
          0.0047555391255721105,
          0.017004304343980585,
          0.01896145518956967,
          0.1086829690610621,
          0.024634168385405733,
          -0.04336997823984875,
          0.056478470432408404,
          0.10698115353981406,
          -0.14537216097365188,
          -0.14090446413263868,
          0.01495820811609516,
          0.04348793076642565,
          0.0029683457219653055,
          0.028380114428768522,
          -0.03634956579238299,
          -0.016448654441676112,
          0.18920812132024226,
          -0.0017179142874684896,
          -0.03286080089887869,
          0.06341151423610915,
          0.04982185356898015,
          -0.14377176282265236,
          -0.03195033447199438,
          0.00039204615450839014,
          0.010657816731717841,
          -0.07466580298568543,
          -0.1183358266872126,
          -0.012862338660404368,
          0.11030799105483635,
          0.12319645170105771,
          -0.014024962343926887,
          -0.014472667907748232,
          -0.07894965413925693,
          0.02935064637171521,
          0.17455809354333435,
          0.05490431999506535,
          0.13394067381655755,
          0.13180659406984346,
          0.06703340890109567,
          0.10897046041233804,
          0.02781882442769011,
          -0.03378607816169223,
          0.004556577601591989,
          0.2291373761993335,
          0.07155349701890892,
          0.11438014133393595,
          0.10854826253284738,
          -0.191137801960465,
          0.008553449009849855,
          0.11060785820780586,
          -0.034224105061574486,
          -0.01389007668676305,
          0.10220750587939419,
          -0.0987638653497865,
          0.09123190353284406,
          0.14481795796372487,
          -0.01912920401614589,
          -0.03192058868047476,
          0.058005757771186287,
          0.04945084323387375,
          0.11430586209490351,
          0.1457698162629461,
          0.055488042235836955,
          0.10604037594476855,
          0.1521780792772694,
          0.09032466191138463,
          0.04189505454541523,
          0.0002719686789783404,
          -0.16350642906844076,
          0.09102298407356976,
          -0.03683854555062456,
          0.05041275152832993,
          -0.0498587791954277,
          -0.08374397046453173,
          -0.07482358223881268,
          0.17555146426724166,
          0.08482519014661673,
          0.11631947668150044,
          -0.10823824669070427,
          0.08638450765970934,
          0.10412167159961985,
          -0.003415158208207357,
          0.0472833106628642,
          0.10156250777147173,
          0.006916117535077012,
          -0.3189902894973988,
          0.009841888945334045,
          0.020921938602429534,
          -0.151614561055583,
          0.03802993417040982,
          -0.02713009962918642,
          0.07393632428522481,
          -0.020291406494765286,
          -0.025341847357600807,
          0.025443442023742397,
          0.11647062884646213,
          -0.10204831489749887,
          0.020958562296257793,
          0.1386602094086938,
          0.09487387377392645,
          0.02300997027616538,
          -0.033462239201130915,
          0.02538867494717333,
          0.07594914192813715,
          0.03821398141604814,
          -0.02853775524181247,
          -0.05489541405085627,
          0.027436353042636436,
          0.004937355841461395,
          -0.018421318985050346,
          -0.13613604234281715,
          0.09563943536231088,
          -0.0896842928568846,
          0.054292160876475086,
          -0.10997069167394795,
          0.030505603942018074,
          -0.05060766995425183,
          -0.014872908097018312,
          -0.11643678765891084,
          0.1308047695836573,
          0.15384937005060076,
          0.048150989940844595,
          0.20041025407948085,
          0.1184932216708978,
          0.19191046361214675,
          0.13313374184826532,
          0.13258893651230835,
          0.03341878382356247,
          0.030534131271486083,
          -0.10618107640576091,
          0.08862067427903612,
          0.17069945812783435,
          -0.04559926505458469,
          0.09910134821710577,
          0.09632131069495554,
          0.18606423213248122,
          -0.10036175039625299,
          -0.03159239838153839,
          0.14695140260349931,
          0.20532866864224633,
          0.054660950848411945,
          0.063355634458858,
          -0.19364232710961943,
          0.03434014164299073,
          0.17400171903967704,
          -0.10949597398669841,
          -0.02861595287503563,
          0.021511484133660063,
          -0.027719388882213487,
          -0.021016107389039043,
          -0.01897803488277295,
          0.09008646194994156,
          0.0792585146270492,
          0.02307152893294633,
          0.17690216702083372,
          0.07610511023685429,
          -0.015116368362722163,
          -0.003409153049030026,
          0.07761692422189904,
          0.028287619733908108,
          -0.09040535742106069,
          0.14467058488445456,
          0.15063312101161455,
          0.003673002469934274,
          0.03837874592022485,
          -0.32907588930455534,
          -0.06022030466705791,
          0.06700206294842181,
          0.01448091718111198,
          -0.06734244006640099,
          0.01197638652827999,
          0.09436119060780719,
          0.17147919465133132,
          0.04692893979818453,
          -0.14988943006425937,
          -0.0930531584085421,
          -0.07908925345535688,
          -0.20968010098302975,
          0.008094010535443376,
          0.08846078804013646,
          0.07531544165156398,
          0.06509143444151719,
          0.11066818100324852,
          0.11217358576838717,
          -0.13486832999449896,
          0.034188881039256415,
          -0.014479498902177907,
          0.029255380133968657,
          0.03346727984080607,
          0.17401621703528597,
          -0.12231747922244714,
          -0.17835363737833035,
          0.15203882957113746,
          0.006230897516306491,
          -0.002981938577685989,
          0.02753101912674087,
          0.07027055201085296,
          -0.08151345365905799,
          -0.03304028324020794,
          0.15010595611250332,
          0.15048683902040452,
          -0.034796817507143835,
          0.14647514236875378,
          0.27643184160493894,
          0.2608456329919631,
          -0.02745389415161413,
          -0.06900698573754524,
          -0.010354062451710819,
          -0.29290536725449173,
          0.026531480555792998,
          -0.06496779784762467,
          0.03871725764037104,
          -0.07444913379914476,
          -0.17199484754030883,
          0.020405286788202446,
          0.046538269327800856,
          -0.09181353501676441,
          0.05989899034671023,
          0.06573953141645475,
          -0.0662155285397319,
          -0.01838009055670998,
          -0.008924448959106143,
          0.2233462944872758,
          0.0071974509111711335,
          0.030321942581715736,
          0.0411241935695748,
          0.034105279342056746,
          0.07824049833080206,
          0.05976084835835442,
          0.04805023532798446,
          -0.09650594367110417,
          -0.07296785610583227,
          -0.04176794583541777,
          0.002256221645092448,
          0.020548219702000065,
          0.08012874372978321,
          -0.0019955911274799226,
          -0.06118652171967852,
          0.12502088768915565,
          -0.016105544080976645,
          -0.06298246887538064,
          -0.04157998861298149,
          0.09264605942055237,
          -0.0953817653049112,
          0.19943323355104695,
          -0.13118866182894456,
          -0.08965974527999801,
          -0.00041160912488681276,
          0.013208950791468608,
          -0.12289117301147191,
          -0.05594579069755003,
          0.002726275515214879,
          -0.09713331677688682,
          0.16591142301958364,
          0.17058978974185884,
          0.11165501865310877,
          -0.07672919343916175,
          0.16541568000394283,
          -0.07532007289865138,
          0.1784946646049407,
          0.1777310549266898,
          0.10268692986014291,
          0.16565215566705443,
          -0.02170057225981618,
          0.0665084872189422,
          -0.1884801020915799,
          0.013247474235234707,
          0.03623761771946434,
          -0.01634175632615994,
          0.04076769979239208,
          0.05225799156760111,
          -0.023433213171598192,
          0.006806761023749802,
          0.22146475709228428,
          0.05343395359522524,
          -0.0030294940257275314,
          0.40867194096655884,
          -0.09318981420345798,
          0.034728905438382786,
          -0.058753225412727546,
          0.19225829439220407,
          -0.02542354435812365,
          0.09506861330860614,
          -0.10488337169291655,
          -0.08391952987157127,
          0.06718789786270349,
          -0.103414799942468,
          -0.061101354336416745,
          0.023249184201416136,
          -0.01509531282984365,
          -0.030911640948744237,
          -0.1043983782249401,
          -0.006324892117436736,
          0.024984369599798138,
          -0.04034810370477414,
          0.060623335124219704,
          0.2357791236882104,
          -0.10870398468369404,
          0.003010753681107159,
          0.06771071686478317,
          0.11219361688104104,
          0.13544516330959233,
          0.013161086014179646,
          0.0356611189220275,
          -0.020028562243661292,
          0.14894003411156825,
          0.014425922943059584,
          0.10985443878070474,
          -0.08440278141217508,
          0.10786503615281173,
          0.004690161675143478,
          0.0746770534845583,
          -0.1086733699718427,
          0.02189835554378577,
          -0.0876195232126009,
          0.1711081064645125,
          -0.08510593197973333,
          0.07676717502645854,
          0.2743423299757632,
          -0.026936980398385914,
          -0.1000106227947647,
          0.16415999311272844,
          -0.10544649021435866,
          -0.009910035207868474,
          0.009040862602815366,
          0.017388842301575287,
          -0.0050759057616285115,
          0.038803168400205056,
          0.15351596068235135,
          0.08638613394070538,
          0.027957296230176794,
          0.03184688291961544,
          -0.0987243675946144,
          0.03719606739705012,
          -0.04133222854973521,
          0.013168727847697305,
          0.004164807044135502,
          0.07325175494242639,
          -0.0014501144084649073,
          -0.1628616856218484,
          0.14835918721858674,
          0.13763659932459202,
          0.12420260134180405,
          -0.07111840455551015,
          0.018699127877039524,
          -0.062333928677560144,
          -0.06998401509410618,
          -0.15355613393390768,
          -0.1551769208536699,
          0.042073452445033584,
          0.09113623074239484,
          -0.2362604609486035,
          -0.036557975178752374,
          0.06394890174671808,
          -0.05713802300559038,
          -0.0935137593541653,
          0.04617400588355205,
          0.07986266349390343,
          -0.05720355679466191,
          0.04441105085821437,
          0.1868722023802585,
          -0.09431130113045137,
          -0.029294740560696905,
          0.0982592693916864,
          0.10489277867133917,
          -0.022691197828537325,
          0.02571495178768509,
          -0.056078749184524705,
          -0.02098774868612419,
          0.1356088610243762,
          -0.12233372764000268,
          0.030121894300640942,
          0.047259628544563524,
          -0.09842254958319922,
          0.040118191866448626,
          0.12437295779380335,
          0.009647929403281508,
          0.1315114542453209,
          -0.024486170604220325,
          0.09067857567739773,
          0.17723108350405406,
          -0.02076810101278387,
          0.15116598190663894,
          -0.057141121629209986,
          -0.028361984574066263,
          -0.03345666497209584,
          -0.10671229651078626,
          -0.15077831167155722,
          -0.20917937670983466,
          0.08564999051811259,
          0.02292693600358058,
          -0.05810426281808712,
          0.09905807257161904,
          0.1323614425519702,
          0.051035871013771,
          0.11971141210597695,
          0.1386698264510503,
          0.07107945797614472,
          -0.005546384021244454,
          0.19531260481032917,
          0.07453397464149586,
          0.0704483604974183,
          -0.04417160880609256,
          0.15776206203517915,
          0.015036969500354784,
          0.021062214369551732,
          -0.05067932605659889,
          -0.003830594180405025,
          -0.1295769823446613,
          -0.18422753346761406,
          -0.07802749497166227,
          -0.007592812268072488,
          -0.19326016604024032,
          0.0161568253919176,
          0.1063851662967772,
          0.013383478581839683,
          0.08907710822056465,
          0.03442266232473554,
          0.005967916907942924,
          -0.0030790510236076694,
          -0.07039407634924136,
          -0.07199315001994354,
          0.1175159907736332,
          0.13875674205535374,
          -0.07692628061556031,
          0.05334757372639174,
          -0.07386311059755613,
          0.1697780707062234,
          0.16535770554096785,
          0.022751903621752244,
          -0.08196775406900482,
          -0.000028976906752153294,
          0.05116758477780655,
          -0.21668242340200758,
          -0.15820374340591675,
          0.04289054067605492,
          0.06346450438359987,
          -0.0925529154033961,
          0.01663277604033504,
          0.0027206636436530383,
          0.002077684240214041,
          -0.09410259551902479,
          -0.06839726841545304,
          0.07913901034221586,
          -0.042142820596716694,
          0.10245910018870857,
          -0.007652086879606322,
          0.12585865926305267,
          0.005446878013234855,
          -0.03659960833921689,
          -0.02386318002310822,
          0.00612633321342348,
          -0.09279109956346197,
          -0.27432893648599366,
          0.04748005225714901,
          -0.08402014678502899,
          -0.051132520593128485,
          0.12094517026263527,
          0.15898587272233117,
          -0.023309527434178693,
          -0.06699812771941081,
          0.09611932875707964,
          0.15910306414254383,
          -0.008486061452654507,
          0.0692687808808314,
          0.11679695098514113,
          -0.1782732014024816,
          -0.1729154827657374,
          0.07850353136577617,
          0.14369712755199682,
          0.06608862819748199,
          -0.027363561309593387,
          0.026469289293004978,
          0.22897581992466212,
          -0.19288576075925518,
          0.08285088843074374,
          -0.013071038978920632,
          0.22378242268908835,
          -0.0019485946195043889,
          0.04184383566816726,
          0.04214500170141741,
          0.02685669690158295,
          -0.06408599061083252,
          0.06289236299331719,
          -0.0006409406130223951,
          0.010298628684559033,
          -0.04745240424386914,
          -0.0369113977802468,
          -0.12161183047865473,
          0.08229557513460184,
          0.17731325811750956,
          -0.13785644779712444,
          0.10381557823569883,
          0.008788164395842131,
          -0.06303113014297346,
          -0.07322852662329322,
          -0.00905296651101934,
          -0.057584873486065793,
          0.0004940368236416665,
          0.054406077718108584,
          0.20417056156484012,
          -0.11437345206272193,
          0.17800213219606625,
          -0.04612915315428566,
          0.015898795258917763,
          -0.004677354723326081,
          -0.14515034289111872,
          0.23492131873861918,
          -0.05058705978329043,
          -0.10328498634051805,
          -0.04354174922332481,
          -0.07491200020107254,
          0.0006239974000089949,
          0.13238194504709822,
          -0.17939977973947818,
          -0.03936748581761899,
          0.09917424494324535,
          0.014880337248978389,
          0.040226962286890024,
          0.030621620196416233,
          0.0020320458075433192,
          0.026706475311938076,
          0.16249138909794397,
          0.0974293897833023,
          -0.022157351532177297,
          0.10146252346357065,
          -0.045011079845566265,
          0.04325833869626799,
          -0.027819215725526255,
          0.13484761566463105,
          0.04153721354871864,
          -0.10624703050400523,
          -0.15112235307919913,
          0.12288185702936802,
          -0.1035339313451716,
          0.12734303022082394,
          0.06771164019471122,
          -0.11362511232637987,
          -0.03655898321214073,
          -0.006151280269417792,
          0.1564843154540402,
          0.12204866395925162,
          -0.004372922726730658,
          0.1590652760753675,
          -0.004755051538786531,
          0.12660176120665517,
          0.06848238730807729,
          -0.14546061891054682,
          0.056403856922498816,
          0.07708057675563307,
          -0.007289526793717848,
          0.021355747107441612,
          -0.17855515324352506,
          0.3273980078993629,
          -0.05323276381822573,
          -0.09384134224384198,
          -0.09464354404012924,
          0.0063168792102608175,
          -0.044228479856982035,
          0.11659754378338857,
          0.16672568018648584,
          0.1647958663525897,
          -0.018629086584722492,
          -0.07584012657013146,
          0.27800468883780977,
          0.041348638171588924,
          0.01607908701674935,
          0.08565713973249657,
          -0.21128922496252284,
          0.12488784249378851,
          -0.03182587505219157,
          -0.05753545891474623,
          -0.12889267520779862,
          -0.19595192980086293,
          -0.02132081584730239,
          -0.03181723028545589,
          0.027769029633778666,
          0.22656497111843538,
          0.09046566519608455,
          -0.016665528173007694,
          -0.13663447736571302,
          -0.09246114362954029,
          -0.08030732836855647,
          0.23878557125514357,
          -0.12003898234069163,
          0.04931366388540898,
          0.11047723877590401,
          0.013289651432720036,
          0.1876632654135585,
          0.013662300397683177,
          -0.25727292094990795,
          0.10620009337405913,
          0.033965927344354885,
          -0.10434584154253491,
          -0.0953105910316359,
          -0.07130731929927277,
          -0.019570870712661472,
          0.25848215911639666,
          0.14156453243131678,
          0.06898128765799527,
          0.0910642118356873,
          0.11872291371332007,
          -0.02671760489728663,
          0.2135983934983121,
          0.07322394171927328,
          -0.04606423271529366,
          -0.02566129247773124,
          0.15414725468769766,
          0.15390719142470366,
          0.0678131704498674,
          0.19169463304901155,
          0.05791115910111798,
          -0.006054160360855734,
          0.13374287080629743,
          0.04865303235164687,
          0.15206993840544822,
          0.056490899864252646,
          0.1988837043752361,
          0.12973126490908407,
          -0.19354899194979877,
          0.2755028410789888,
          0.18715909898481958,
          0.09860372454119008,
          0.12467149678094579,
          -0.03144670759854364,
          0.006233659459904423,
          -0.018131061091435842,
          -0.049965954140498044,
          0.08077415677437419,
          -0.09457036854277137,
          -0.16325683413194644,
          0.05505549875226784,
          0.04634254021141968,
          0.046545465773073925,
          0.10744935808609861,
          0.032829982564239725,
          0.044289714675259204,
          0.023183107123809818,
          -0.030067510534054754,
          0.06893231484811058,
          0.14701013999624526,
          -0.02255162741580036,
          0.17662677482461525,
          -0.019138391418134042,
          0.20252925327632773,
          0.028411583868653764,
          -0.18072912163494304,
          0.01847443730679607,
          0.175270272815102,
          0.2054261460203256,
          -0.0010845121644285328,
          0.14341157536756263,
          0.031748923192909576,
          0.069160431775133,
          -0.12818788573010065,
          0.18676279503704765,
          0.1886621460500772,
          -0.06463131271603771,
          -0.026337240580720234,
          0.18797690191528035,
          0.1529377219462937,
          0.21227155240902945,
          0.09916666773259733,
          0.19795178431749377,
          0.14074981569841524,
          0.007492757524916868,
          -0.03133293784332089,
          0.17024430770643564,
          -0.07907371482139444,
          0.006190781489940618,
          -0.2215763180592444,
          -0.07454670779861712,
          0.04284878113804191,
          0.08956883232005565,
          -0.064050222039537,
          0.010190521674658446,
          -0.02451610897446394,
          0.21031705124540603,
          0.053347130387657093,
          -0.04925020253129121,
          0.1627433713674142,
          0.06836987521703364,
          -0.03713469428327507,
          0.218768434463084,
          -0.07118617181634398,
          -0.12007740598093447,
          0.17766700942748143,
          0.012553546766284361,
          0.10523286924850156,
          -0.11272351682070064,
          -0.13788226050068672,
          -0.038745840338887255,
          -0.09212415057660588,
          0.12085599483233796,
          0.06964370834059232,
          0.12538164910204738,
          0.20348892868567162,
          -0.019459697826056263,
          -0.23424324426051737,
          0.11158747429697437,
          0.10281724926891037,
          -0.009817871052483034,
          0.194488051090911,
          0.25919966281241985,
          -0.05063964024055887,
          0.06557634325717604,
          -0.027063734213447294,
          -0.012636776242406635,
          0.06090865740795862,
          0.17584917445384796,
          -0.007920879271682973,
          0.03280396525556208,
          0.025411849655748,
          0.02448508102446578,
          0.03533150710031926,
          -0.05024985241541912,
          -0.020666551216038834,
          -0.08254928980031848,
          -0.09863970475201946,
          -0.04580587345786241,
          0.21662919395683453,
          0.20397083499498603,
          0.17578479682374168,
          0.02055645172910871,
          0.03774601055702309,
          0.029022258664278176,
          0.13031652404622446,
          -0.10802464859507298,
          -0.03031645720044645,
          0.05819912315579429,
          0.0907271561609808,
          0.007799111103052238,
          0.007068981718011425,
          0.0862404757260236,
          -0.20125581600768433,
          -0.06467718346017777,
          0.006312528242123974,
          0.044668185246550446,
          0.028491418698219584,
          0.061346303041002644,
          0.051824860417289835,
          -0.028277649416265482,
          -0.00518811475946499,
          0.17321924444069461,
          0.08181203290302527,
          -0.1519779269448453,
          0.02271171993067913,
          -0.12313093687261593,
          0.01196015632233882,
          -0.09796874934891875,
          -0.049380782819690605,
          0.07272261196754748,
          -0.17838441127441002,
          0.006875222858937991,
          -0.13671709473502663,
          0.04197587824426966,
          0.21970304710530664,
          0.008660005586647245,
          -0.11336208761041643,
          0.08592851016016188,
          -0.04136856360219107,
          0.02789422570777508,
          -0.19199439027419252,
          0.24751328543895704,
          0.12570517415687366,
          -0.10405313131710772,
          -0.04508626354976654,
          0.11370919996649016,
          0.037797796853221,
          0.04668400908684226,
          0.06443769480418479,
          -0.016752308881478852,
          -0.01171168944522291,
          0.06173785080996016,
          -0.030405861039023836,
          0.07380994634497676,
          -0.0861121905744461,
          0.12190857805183661,
          0.1043930969855149,
          0.13110742403293882,
          0.1960103537087337,
          0.028624995542236884,
          0.12121839447153732,
          0.2136741802335951,
          -0.05088044847420033,
          -0.007980377869353232,
          -0.12474549948501883,
          -0.01932158509801372,
          -0.13698433959361556,
          0.15303531813188884,
          -0.10865889812292899,
          -0.09796034767125186,
          0.033530654097129395,
          -0.07523248534403028,
          0.015473848529410233,
          -0.05263436477207576,
          -0.13757932015723592,
          0.0045937811317749875,
          0.021773911102328854,
          0.029983738261567323,
          -0.093045259088078,
          0.08005674309008577,
          0.06969846722490076,
          -0.18524347230449278,
          0.027187782150319757,
          -0.06754564993510082,
          -0.0363609324623466,
          -0.05585746610660105,
          0.04902799724865584,
          0.05428778143293373,
          -0.16640355585671715,
          0.12513932734076527,
          0.04433785466785154,
          0.07393051431241986,
          -0.01772203122096069,
          -0.031183222089032018,
          0.12280165204536882,
          -0.09800530793241295,
          0.058881065753214536,
          0.056995229938142336,
          -0.03343578663926677,
          -0.007839987004366429,
          0.09272155881515477,
          0.22077692021181022,
          0.07904292554960926,
          0.013972943545637408,
          0.01928928168784103,
          0.011551941230032729,
          -0.1519099190327273,
          -0.1475672038446232,
          0.1879534478129375,
          -0.037680460113737616,
          -0.020965695292816278,
          0.03749877284699798,
          -0.16438772232979337,
          0.09356407624116629,
          0.06865637375959392,
          0.14424777882265735,
          0.07808604044463656,
          0.03866687019101656,
          -0.025107496838023057,
          -0.04233771993736507,
          0.046594201755760595,
          -0.005108130450750031,
          0.12322298620610476,
          0.02429091913552317,
          -0.1522071632972169,
          -0.07701472614336033,
          0.02006686685291947,
          -0.001317792773646476,
          -0.06827719625515272,
          0.05792347226354014,
          0.12382193835582833,
          0.08695613571898451,
          0.051158021471241266,
          0.1444394315299322,
          -0.17464196046054398,
          0.09711754437869201,
          0.18003541787673125,
          -0.13986966169975648,
          -0.09966792461934765,
          0.17305670852161853,
          0.15235242213342212,
          0.023619424129588822,
          0.14142399410174827,
          0.03429706123667866,
          0.13317899189928084,
          0.09814374732655451,
          0.10571790936072416,
          -0.11736696104718762,
          0.04280748669477036,
          0.0021634884008778963,
          -0.012960201413579116,
          -0.06893600144815033,
          0.02318588555310489,
          -0.1631465466875254,
          0.11413271954308,
          0.00781187625245099,
          0.12451974221750772,
          0.05319571628656093,
          -0.017162155806740513,
          0.0004160956371732768,
          0.13478889675170122,
          0.0874507057345693,
          0.09497472465172531,
          0.09743426130872881,
          -0.04891647195462579,
          -0.09621411779348905,
          -0.09490606400135292,
          -0.15357241923691975,
          -0.11084820065902434,
          0.20742304533531378,
          -0.02073012441748676,
          0.05180658390596888,
          -0.02136663666767055,
          -0.1282733437907901,
          0.13193627042737363,
          0.03781662229010188,
          0.04128354224349873,
          0.030864666577332795,
          -0.07182287404723298,
          -0.07231261151815774,
          -0.07190631175397051,
          -0.09802091628523538,
          0.21383663936927794,
          0.061527449610733524,
          0.04874130965234863,
          -0.06815070488656062,
          0.0404084228230479,
          -0.11761888488809594,
          -0.01601863321968398,
          0.1283831362860103,
          -0.053717808009214475,
          0.1401268419233537,
          -0.07392936021678123,
          -0.0037733158116947598,
          0.14912172701281085,
          -0.017148500781633425,
          0.02615096358454126,
          -0.16186439281316256,
          0.13575519725646273,
          0.09396458819360333,
          0.011672378810333622,
          0.11299536260574079,
          -0.0745913876509055,
          0.018230984143225416,
          0.16811728149650637,
          0.02883608323870121,
          0.034796190951324274,
          0.24553520568300582,
          -0.15122014869597875,
          0.0734868391456591,
          -0.01814040848936571,
          -0.0017307917083273735,
          0.07913603815968993,
          0.14954659300531156,
          0.1349911093919279,
          0.08163538814703458,
          0.08770016573398204,
          0.14186931360033486,
          0.08586483389486557,
          0.05291318852388372,
          0.02851386427804637,
          -0.01168765446641078,
          0.11579037048698963,
          -0.08815605024411892,
          0.039813608087988214,
          -0.13446680469167752,
          0.00726840597427544,
          -0.00413357375035026,
          -0.16233420743939864,
          0.08119737586337715,
          -0.17365536333838733,
          0.15130732393556917,
          -0.05329270747282328,
          0.15992585041574023,
          0.06838213109405629,
          -0.04122806757663156,
          0.2605099712649019,
          0.12968759291868553,
          -0.053694259298101,
          0.2100090919124301,
          0.010653123157492008,
          -0.04576084092129586,
          0.07336288514202984,
          -0.09532494902453932,
          -0.0013267469072036355,
          0.041358309540519674,
          -0.014897126409083509,
          0.005777260567836093,
          -0.025433490662570564,
          0.05366793246601949,
          -0.0599906975581904,
          -0.03774392848839702,
          -0.08660315791218579,
          0.07413988499555264,
          0.048012415194232806,
          0.13588082038105176,
          0.11441296823872145,
          0.10544027241031446,
          0.1330243854759077,
          0.058074802546900534,
          0.013795519355330335,
          0.1620642559311769,
          0.006617702936284617,
          -0.0075487755443303,
          0.07794301388065719,
          -0.05833641316577722,
          -0.167376637887967,
          0.13754663585347038,
          -0.10822328023930565,
          0.000037815477728171654,
          0.15037029312516953,
          0.00421283693013847,
          0.04927484682886663,
          0.0835692979849417,
          0.10645536272630313,
          0.00874033497246712,
          -0.03464182643083074,
          0.03187991874697917,
          -0.08527281373448793,
          0.02029607551514357,
          0.08188599912229895,
          -0.1755539255026112,
          0.06393516770370244,
          -0.009344603592143582,
          -0.14734118142164077,
          0.10037876160361937,
          -0.08354853911196473,
          -0.12515291583583335,
          -0.15965919981692958,
          0.047328751431220964,
          -0.0704086285122302,
          -0.1349142132081992,
          -0.01547222877994256,
          0.07006048287544955,
          -0.17372429705125386,
          0.01487323842016012,
          -0.08335205065696107,
          0.14642802034547997,
          0.2626349178854715,
          -0.00007198627522385121,
          0.04003813356542961,
          0.08746399508138877,
          0.1577195354752466,
          -0.16189893641707387,
          0.017003529994874683,
          -0.08963819006537814,
          -0.20995621435220263,
          -0.09018258421821063,
          0.014490372162553325,
          -0.15192670760341467,
          -0.1416946380760683,
          0.10256417821219903,
          -0.1400891653680627,
          0.06836176108297201,
          0.014582367728906018,
          -0.02959773511087335,
          0.16870152545815312,
          0.0643487030864299,
          -0.018943670269703762,
          0.002892344756948303,
          -0.14260716387848904,
          0.016171322933150132,
          0.1331658289828842,
          -0.04618823703488339,
          0.21115390395187295,
          -0.05512855033873804,
          -0.029551811533144217,
          0.027148403558534658,
          0.04276664183958018,
          0.1603938149351581,
          -0.1674494327484206,
          0.1049012940521755,
          -0.03896268314550275,
          0.07409428925523368,
          0.07226709926842788,
          0.061239503568937384,
          0.18996009104384928,
          -0.023310187791001417,
          0.18903578311027927,
          0.09112185983583412,
          -0.12002409595978576,
          0.08893115149955823,
          0.1531051530972318,
          -0.06282110614672044,
          0.01819967408542398,
          -0.08280035981674559,
          -0.057419814474371604,
          0.15090068332378792,
          0.05813166612801225,
          -0.2217513367223122,
          -0.07400488939682355,
          0.0063511361011392995,
          -0.10073686377517822,
          -0.09619755618792812,
          -0.0519414425986819,
          0.1578935698295671,
          0.1695065993621232,
          0.08528783472809859,
          0.10837539047375168,
          0.14755166812223236,
          0.10863642160270195,
          -0.02353989686030247,
          -0.06821481856629262,
          0.03362616815327315,
          -0.1130688795694978,
          -0.06018816273465778,
          -0.06797546038802585,
          0.10570695857959722,
          0.0681087457937106,
          -0.067109566778557,
          -0.2125067904697322,
          0.2292769672057239,
          -0.11427914396804724,
          -0.04509518871826212,
          0.10586103090095227,
          0.21292753369703382,
          0.03392480695508474,
          -0.020544690698680812,
          0.1256203171235795,
          0.010054894402124771,
          -0.012302224414531571,
          0.045558882452643217,
          0.11743586577231635,
          -0.06162119443714742,
          0.0828381832179578,
          -0.08449460486387984,
          -0.22878810507816222,
          0.10650457750325093,
          0.035877634387648044,
          -0.26018741089582026,
          -0.04452005877487806,
          -0.0025696909951704685,
          -0.02706600036666835,
          0.11365366026035188,
          0.033382442034857414,
          -0.044329969916594686,
          -0.06512774405044948,
          0.005441096792835781,
          -0.06171341336604876,
          0.1561254476618632,
          0.14854173828264325,
          0.07805508043022143,
          0.1687866968832946,
          -0.0042120994986401174,
          0.04897476119391404,
          -0.10927448758472423,
          -0.02569965283081629,
          0.0198084156738864,
          -0.010392936378441636,
          -0.10709882193042237,
          -0.01015294171707387,
          0.11474105179923667,
          -0.20074201120163604,
          0.027717637502490997,
          0.05835458148768571,
          -0.051711850192029174,
          -0.052185700536452,
          -0.05799436866913452,
          -0.17819721828701915,
          -0.013843637055948696,
          0.2342452062110635,
          -0.05226860055570965,
          0.21858786962184076,
          -0.1251007040725167,
          -0.04955900305018511,
          -0.005467841721298954,
          0.051654762779878904,
          0.11429721831912673,
          -0.018265568944845025,
          -0.11875392072498886,
          -0.034146511063815894,
          0.10165549653200422,
          0.02248296254287076,
          0.18255024201358036,
          0.18887426410739278,
          -0.2274900795370822,
          0.00586017965748724,
          0.13609398867934724,
          -0.0056071138536711125,
          -0.049755544187404396,
          0.0760237149132475,
          0.009186777764034013,
          0.15245944706914613,
          -0.029624693899525767,
          -0.1457643119029236,
          0.0359800457388512,
          -0.020264255524511283,
          -0.07038067458835062,
          0.2873160318841492,
          0.09958093116070658,
          0.1866095646772432,
          0.11816474373418058,
          0.010820298428865043,
          0.03042303997601003,
          0.03793747439881376,
          0.0790350942010197,
          0.15823408190052893,
          -0.007584640537725342,
          -0.024872236594636884,
          0.13556754623030573,
          -0.1259555773690225,
          0.0296722712486945,
          0.18339993052858816,
          0.02107613548914259,
          0.008582492228966435,
          -0.050094118689399884,
          -0.08562014986939881,
          0.018076130168765976,
          0.04558575632752557,
          0.10833191022181855,
          -0.07364486385233791,
          0.11679591561968104,
          -0.07579481842412046,
          0.06365230387127951,
          0.01292235534582779,
          -0.12299123632996906,
          0.1785659779512079,
          -0.07812458754677784,
          -0.05411128599248274,
          -0.08642312417979166,
          0.11459599578414367,
          -0.00911364362541621,
          0.06408619453529192,
          0.010354944780897985,
          -0.08815455405904563,
          0.1610064533831331,
          -0.060970126095315484,
          -0.042327944828743476,
          -0.013405306450634575,
          0.13463471705296629,
          0.16548449042861763,
          0.1834751033366365,
          -0.04233347039848676,
          -0.17970767700908732,
          0.06246585411600049,
          0.14511122830700962,
          0.17810378737565008,
          0.11211691211218786,
          0.10114733049103201,
          -0.0602724778200712,
          -0.018848778549162126,
          -0.017282326229038653,
          0.23034582918414892,
          -0.003774895652591314,
          0.010855600252837603,
          -0.19384718572704987,
          -0.17943745507889106,
          0.08921793290717561,
          0.052575091380026764,
          0.02541487317047633,
          0.020158125351811156,
          -0.07107075536096628,
          -0.0849782675228881,
          0.027118707622742547,
          0.2253558819925738,
          0.13526750432893847,
          0.08448024664244874,
          0.31533918105871445,
          -0.05748130635734669,
          0.12138753011972879,
          0.017300784774969123,
          0.10626820143399776,
          -0.06821072355020032,
          0.02562275249860539,
          -0.14555853193081134,
          0.12428450840370331,
          -0.17309959902276767,
          -0.016237615419124544,
          -0.09255814444183592,
          -0.022717342732647843,
          -0.20162592134620033,
          -0.025311770880965822,
          0.021753964646826506,
          -0.037717125544794464,
          0.10974398583076855,
          -0.045388497424539966,
          0.029714118207817143,
          0.15608053012167075,
          0.18409446276341143,
          0.051443236755594535,
          0.07370412167739437,
          -0.027859504752146536,
          -0.008902186445363981,
          -0.21338711686097206,
          0.021393699035837578,
          0.27954508039082115,
          -0.018748300580651155,
          -0.053991925645400125,
          -0.08293315064728667,
          -0.15342758796540198,
          0.0865475590682067,
          -0.0631064606880685,
          -0.01745325409548135,
          0.2776372040819868,
          0.034945195715883115,
          0.012532452932960467,
          -0.013901547779627682,
          -0.01643545537958923,
          0.07692328690804057,
          0.1226356613144423,
          0.10200870808951061,
          0.14225133442427745,
          0.08451971638990245,
          -0.04165806291779658,
          0.05519146656423524,
          0.23893685287076974,
          -0.00437957596975989,
          0.08327460075231008,
          0.1882831292805238,
          0.09008837717268799,
          0.043239976289695344,
          0.07552920923865596,
          0.07476437165905052,
          0.05974618830193142,
          0.03206436090855934,
          0.062485088308075774,
          0.005966543323339187,
          -0.09004456172238495,
          0.06527418004912339,
          0.20215805546205676,
          0.032441006273474716,
          0.04466070134609774,
          -0.05313988744206639,
          -0.020580282878801315,
          -0.029769640635267013,
          -0.11948035695379852,
          -0.05684833399841697,
          0.04322817644320464,
          0.0306710540422027,
          0.0661375136688393,
          0.06083855719246455,
          0.05605422106994131,
          0.04338316188205947,
          0.08231665288326391,
          -0.1096578065802445,
          0.1272893972867367,
          0.09000369807501925,
          0.20455437991885264,
          0.21237784074341137,
          0.0509063191938802,
          0.09656556441868991,
          0.024906889449219087,
          0.08409916044123668,
          0.053201596833789715,
          -0.2521534638365471,
          -0.2034754656676574,
          0.0049359360327712355,
          0.02575168182982758,
          -0.04257441229255836,
          -0.1809200241776194,
          0.18705080495277887,
          -0.13799690872970613,
          -0.06610828236969522,
          -0.03726891470203618,
          -0.0767571758026235,
          0.14111921150130388,
          0.020117521153441523,
          0.11039056267315112,
          -0.07259420684794284,
          0.26074491254003385,
          0.16553019779678432,
          -0.03790564267782442,
          0.094928301661839,
          -0.06774318859257976,
          -0.1064085752678178,
          -0.28410593467479955,
          -0.0870492204536263,
          -0.05152839035571139,
          -0.09385259635748452,
          -0.027434115809562135,
          0.10320207830308115,
          -0.05525342128394895,
          -0.0835866264141953,
          0.21271639627493685,
          0.13834923661778267,
          0.0923954110433428,
          0.061639536363557894,
          0.03246669375050382,
          -0.17046515565826623,
          0.16666818600438943,
          0.06591122569829456,
          -0.13989199363730195,
          -0.09653942646281163,
          -0.0615839853161098,
          -0.03971666109032001,
          -0.10228558659611574,
          -0.19222476441424305,
          0.013274925984978076,
          -0.04673964557482868,
          0.04949174477587284,
          -0.0881080105317222,
          0.08914517882232505,
          -0.09400946156543698,
          0.15081845957640755,
          -0.16157291323581202,
          0.05645956312984664,
          0.08972407536775578,
          -0.09161021077953901,
          0.17007992592894647,
          0.2380713557142482,
          0.24290728283305257,
          0.014306990059356744,
          -0.0962032050236085,
          -0.17384106388046494,
          -0.05101740020502332,
          0.0613360503977425,
          0.04071805814048232,
          -0.05380857273498086,
          0.040872573885382846,
          -0.021025720697231843,
          -0.11463792761490992,
          0.1201838846699808,
          -0.05597120339759619,
          0.12615545555769445,
          0.14129178983623913,
          0.09339063289775879,
          0.04514027665471337,
          0.17110121241639828,
          0.20480157860792314,
          -0.10783854765379079,
          0.04590805924996136,
          0.15447118530940798,
          0.07775007069049282,
          -0.1149989490289969,
          -0.11379974985542426,
          -0.19064780684058902,
          0.012448741052576288,
          0.045550685846391,
          -0.08955408042863079,
          0.06088168342512504,
          0.16060127408674962,
          0.053707578335766636,
          -0.08732175817582309,
          0.043239634306996365,
          -0.04125234721642961,
          0.07104338446519692,
          -0.057563866096634865,
          0.2084103311709858,
          0.19821374985358545,
          -0.049080007723866406,
          -0.17279192543241184,
          0.1605829774375659,
          -0.11256416810004627,
          0.06042261303878466,
          -0.15563338152032952,
          0.05848051969873881,
          -0.17361475133207963,
          0.06818676956008635,
          0.14467544205825777,
          0.1346001231222788,
          0.111682735941482,
          0.001614330931080002,
          0.0026732308111890907,
          0.27568244044408236,
          -0.09222506484327173,
          0.01729388189051878,
          -7.085961211287442e-6,
          0.006252241071448484,
          0.0809439672072617,
          0.052829608788210365,
          0.4051505264250475,
          0.17000103591705484,
          -0.08374182070395807,
          -0.05187390159035644,
          0.05635138327483777,
          -0.019775401420837623,
          -0.015568255770939177,
          0.18925015334938694,
          0.11483577643538664,
          0.05759990703371181,
          0.01052552463502721,
          0.15639269493076124,
          -0.09061638315910947,
          0.04525324379318728,
          -0.003506995022737816,
          0.06875532215769023,
          -0.06420104499310154,
          -0.05983505447349894,
          -0.013866382933823774,
          0.17126149578999417,
          0.266195433645817,
          -0.24105946269918793,
          -0.061948104442140446,
          0.06153007054311677,
          -0.031043776919864104,
          -0.0074719941508828176,
          -0.1017521479867774,
          -0.011804736422059543,
          0.04880534969401369,
          0.0019992042540545605,
          0.06642269761343741,
          -0.11386728631715808,
          -0.12994416803619824,
          -0.08929367473154454,
          0.008329426270506196,
          0.09879903643130909,
          -0.19037304508581868,
          0.15726296893843342,
          0.09088535690044974,
          0.04311275200649177,
          -0.18996372077472987,
          0.12398344753977117,
          0.04194948685752198,
          -0.03164251605314105,
          0.08079903854622354,
          0.04285502551903792,
          0.057328421083847794,
          -0.0598693771500604,
          -0.01719235440712863,
          0.18980828700813465,
          0.11779779073387532,
          0.02710097854873664,
          -0.19095348278462823,
          -0.08935099858747257,
          -0.06231820583146725,
          0.019494896099248454,
          0.14557421765123552,
          -0.025233887262815762,
          0.033021724977067644,
          -0.06635251313854672,
          0.05878303928670886,
          0.1109794698090775,
          -0.02445342237877361,
          -0.19226555564657594,
          -0.08587349718920492,
          0.1143436447916894,
          -0.2634035597495517,
          0.05429079182229169,
          0.026308679312233844,
          -0.031857070698299156,
          -0.05082161547271582,
          0.20174426901743772,
          0.031066509443186688,
          0.08704384769312558,
          0.22188849249591067,
          -0.03453332323109958,
          0.14017597239348706,
          0.13880603676715003,
          0.10399759827600219,
          0.13736361040530828,
          0.11221849629584478,
          -0.1399508303455121,
          -0.05579816153217388,
          0.23781851906633028,
          0.022578092702707952,
          0.05279542394252771,
          0.05421821408136818,
          0.17018599062974543,
          0.1401112570137712,
          -0.10904952618995944,
          0.07658228288134371,
          0.20940355849957806,
          0.04263541041231958,
          0.23042599830411908,
          0.02626359454194767,
          0.08979338376545173,
          0.03938125444239848,
          0.022154446167348556,
          -0.16426578910059447,
          0.09655900595883381,
          0.037670056858169196,
          -0.0018825292184698136,
          0.02071065356599722,
          -0.09898576641145891,
          -0.035175573273774775,
          0.007596530056157945,
          0.09390621573934224,
          0.0043517694278233454,
          -0.08453037264448492,
          -0.004771496327819069,
          0.05000048277123783,
          -0.007770636058948121,
          -0.09516365647153492,
          0.21922773409269342,
          0.01609328886595573,
          0.004610527160651893,
          -0.008467646738937528,
          0.08742774526514793,
          -0.012415920310205714,
          0.022490325090086694,
          0.002032937245560139,
          -0.09317987797198042,
          0.25581680906707477,
          -0.08816008939463216,
          -0.10275987944085005,
          0.024025717033069684,
          -0.12124545232039037,
          0.18112020746743532,
          0.06484191591543755,
          0.07064010669488228,
          0.15953901052510433,
          -0.07258544399888768,
          -0.022794791996316056,
          -0.16242389210369249,
          0.06042630070471694,
          -0.0836289690196273,
          0.052730272734861146,
          0.22540419717139568,
          0.07576173742918528,
          -0.04617820250421904,
          -0.0005548448008546046,
          0.10410725399560279,
          0.12181843780944873,
          -0.147232026329554,
          0.027953421276489403,
          0.04430701592493682,
          -0.09466257706992014,
          0.06016496844362083,
          -0.030578474186441027,
          -0.0009320374233435342,
          -0.05083478192356481,
          -0.052945801748144415,
          -0.10926893001763625,
          0.06578387229472404,
          0.004131779186922312,
          0.1007104187675365,
          0.016447017280890392,
          0.15604534601684042,
          0.005627879418325007,
          0.08408549373748436,
          -0.0532087122735946,
          0.002132018648508138,
          0.07008145027418078,
          -0.0689444079843383,
          0.010918640175219914,
          0.20818706362662434,
          0.09213088450048582,
          -0.050734778786796254,
          0.03565055961770362,
          0.08597844909358378,
          0.09446972477179492,
          -0.17534967153226064,
          -0.1751115564459565,
          0.008313451619278987,
          -0.06422128531526704,
          -0.003101058822551263,
          0.14901422484820792,
          0.1441436554780517,
          0.024945779524386195,
          -0.12891853952383658,
          0.05829286365433457,
          -0.01807998491452772,
          -0.10941616173597278,
          0.04831039184805277,
          0.10070064274324558,
          0.07385112828332187,
          -0.12053193730046749,
          0.1892287109291077,
          0.029690713614074642,
          -0.1273303834066352,
          0.20234627451815956,
          0.026312487353783335,
          0.02904638900720789,
          -0.06531655155657952,
          -0.06780025829134244,
          0.013855907029582117,
          -0.18835954708149635,
          0.05209079120270187,
          0.15578219544377422,
          0.07468359636732516,
          0.08139193806192256,
          0.02472449741407458,
          -0.03732053436701525,
          0.046601761985100194,
          0.06775390345980131,
          0.25056837509282176,
          -0.12429271632072855,
          -0.11181343322730783,
          -0.12792388436874327,
          -0.00808678358741457,
          0.11724931968690701,
          -0.1260513186542116,
          -0.13488105465388125,
          -0.0342222695425076,
          -0.022209511883603834,
          0.09671968956615262,
          0.12705011785444204,
          -0.09569805183796243,
          0.18787394938531368,
          -0.021570445841284452,
          0.04789530493913981,
          0.1312665756379654,
          0.1776479146245428,
          0.07796994034934498,
          -0.0046825315490527835,
          -0.045526186807009324,
          0.01236343080569688,
          0.04882402341033026,
          -0.01665197058296312,
          0.07677447349534001,
          -0.0593562202579181,
          0.16475466782283174,
          -0.08759195019853601,
          0.03998606833668071,
          0.012582861864014902,
          0.034438889248791224,
          -0.21216771451281585,
          0.030530669098950313,
          0.15231366747456695,
          0.10258605848712615,
          0.05571595354289175,
          0.34620003413942024,
          0.1372882080414525,
          -0.010402818627676487,
          0.012948995286291844,
          -0.1289356001619158,
          -0.08174022498005651,
          0.008305254712292603,
          0.015669813949621237,
          0.13098416066549143,
          0.04622996703054646,
          -0.1149577303441452,
          0.032980776077437,
          0.015390977176820664,
          0.15026582485129242,
          0.17839130614404664,
          0.1077596971657221,
          0.06936304951603318,
          -0.09685367487513317,
          0.015483945544795838,
          0.19019519414083083,
          0.1791179978073625,
          0.1877025734835066,
          0.14928808830742113,
          -0.13099495534713046,
          -0.17491030418718792,
          -0.07264213880002263,
          -0.08067149585250183,
          0.1656602221423241,
          0.002571605980171189,
          -0.10307925290345828,
          0.09874910724766724,
          -0.04563899026458549,
          0.06826917865851806,
          0.09708060472496575,
          0.2287027489823567,
          0.15173017928332552,
          -0.03414204731602746,
          0.10404260479128036,
          0.16960390928381658,
          -0.059746166187993846,
          -0.0026037273524862686,
          0.09272708676642584,
          -0.040969328791993324,
          -0.009348885411045485,
          -0.004783118724617067,
          0.18606544396449937,
          0.01813148232662353,
          0.07641291473985841,
          0.14736785894886859,
          0.004302925894827508,
          0.10339548233370395,
          0.01403589152976105,
          0.041428630380261414,
          0.1100598231186919,
          0.08201397858758709,
          0.016420185622983106,
          0.10646029145506401,
          0.09794365259593074,
          0.23660814981123077,
          -0.10354194289774646,
          -0.021526907218825702,
          0.046038660802031325,
          -0.08663756585044446,
          0.11152837592493511,
          -0.040317630886336796,
          0.13716901859795777,
          0.0063303732963272035,
          0.14131779361030844,
          0.037147291135732244,
          0.00013609947459085757,
          0.0005321714780753422,
          0.09402155001144015,
          -0.10572545014118927,
          0.11386044539173867,
          -0.05011727522592913,
          -0.01800143778979474,
          -0.05740428403336717,
          0.009563917097886555,
          0.01187325021887792,
          -0.07509735353299457,
          0.1159735603881223,
          0.048139393524791275,
          -0.04382327107649856,
          -0.014182603362736414,
          0.027488135806312364,
          -0.12136863528802763,
          -0.04185293650875955,
          0.024011962118956412,
          0.14440400857484767,
          0.10553935004927494,
          -0.06772093375560705,
          0.18799907689707535,
          0.2864602710599959,
          0.05380973079433425,
          0.10026652574789152,
          0.12503314761214393,
          0.053565722565117095,
          -0.09765679231017389,
          0.11235486423235802,
          0.08714415684078879,
          0.13943475367112954,
          0.004500027629160365,
          0.06271792419113031,
          0.09429256468727411,
          0.07427169254045803,
          0.07115775287972943,
          -0.11162634738268702,
          0.01857162632492726,
          -0.0012569231203985005,
          -0.032425906763208064,
          0.05723066712608591,
          -0.07092604050173461,
          0.20916047413270075,
          0.12396138383615356,
          0.06174459210204665,
          -0.023479245371212192,
          0.06980572171242364,
          -0.018191945181843912,
          0.14834077638743326,
          0.037744480289707144,
          0.04105536442043087,
          0.04529163953710105,
          0.020855456035738018,
          0.12352845832587196,
          0.10781196479184717,
          0.08887229876653348,
          0.02045728710762975,
          -0.00875465216240927,
          -0.05127925193669983,
          -0.03821700118192129,
          0.13411200238342885,
          -0.08174857182979052,
          -0.059534089288426954,
          -0.0863163918471419,
          -0.036911738236917735,
          -0.009872653969822677,
          -0.023580747041710738,
          0.03756865052449468,
          0.11819007333613206,
          -0.00812608959125512,
          0.06930751998835899,
          0.0417133056673232,
          -0.0018782459173187795,
          -0.1387090068535451,
          0.12219561074587744,
          -0.09025657154932663,
          -0.10174927253626637,
          -0.07441872441503988,
          0.06617430907064129,
          -0.11830605530206936,
          0.05489087095396098,
          0.12870149205092948,
          0.05899726034879592,
          -0.00945506441392289,
          0.2073683294926766,
          0.20629096869537497,
          0.19395727796574697,
          0.06355384675353776,
          -0.04012874239759097,
          0.11929647691843635,
          -0.13077898417043166,
          0.10964002424128176,
          0.2116079755397876,
          0.028396287250104558,
          -0.025302056786837477,
          0.08084608813465999,
          0.17558288699668043,
          -0.007941005215332069,
          -0.0022444557817561635,
          0.11253953348034605,
          0.16555454401124878,
          -0.011434474316497165,
          0.11429006860570234,
          0.149242106662045,
          0.08859151158221261,
          0.1409723876697665,
          -0.11500146900336487,
          0.013430420404365605,
          0.01041832890255992,
          -0.015508918034894358,
          0.068638401559656,
          0.21097786537099097,
          0.02376404907722035,
          -0.11375472148966813,
          0.005049337218684511,
          -0.024616236094978924,
          -0.19721709519540584,
          0.06564322746970502,
          0.09815702084081149,
          0.15731806381968744,
          0.06773967790278514,
          0.007580620314018182,
          -0.039906019656180465,
          0.018168813561644195,
          0.0000809925595586087,
          0.16755503822153514,
          0.09214997202907366,
          -0.007698800443332146,
          -0.04207725549887382,
          0.06482440445105672,
          0.05622502107664951,
          -0.04763946638526941,
          -0.010319256085825183,
          -0.07786088229026328,
          0.04871946390923341,
          -0.09319281078894105,
          -0.17333130547822256,
          -0.1571144583274833,
          0.06951986207752206,
          -0.004590996251123625,
          -0.22666109047452027,
          -0.12406725495966314,
          -0.019743331866871005,
          0.10740591706900321,
          0.12677675865973226,
          0.1883713826434352,
          0.014539936406335425,
          0.1410214843339243,
          0.12741370603698862,
          0.002783808275560282,
          0.022556855604068126,
          0.027526776814346638,
          0.017247953219523368,
          -0.12539691552718987,
          0.1152893016325289,
          -0.1849997744442762,
          0.017193362400087273,
          -0.008600354397806488,
          0.13994102781054132,
          0.04919680064039813,
          0.0024843264527992666,
          -0.17407523037438224,
          0.20867883016542157,
          0.17652581909660708,
          -0.05359492286981608,
          -0.047861964448577404,
          0.047593615355573944,
          -0.049015444520230524,
          -0.16675190748124863,
          -0.04508122069311716,
          0.05441821161266527,
          0.016240231240797952,
          0.10967817552396493,
          -0.3267539537121742,
          0.10885860451704753,
          -0.12071070792714346,
          -0.018076898298590757,
          -0.09195128522487059,
          0.0954734502816842,
          0.1967667306217475,
          0.06538683488878823,
          0.008686991097070558,
          0.05850566131519292,
          -0.006242908513144108,
          0.08077792828908296,
          0.11567489630542446,
          0.09803749416762073,
          0.027206427118871175,
          0.045776080452287725,
          0.10580626814629793,
          -0.04169164438425021,
          -0.0356604006525344,
          0.04781138476711234,
          -0.3434450082775016,
          0.05149401469084567,
          0.13234040422448712,
          0.0332739837968015,
          0.08168582985131881,
          0.1152747375562874,
          0.12070682895238731,
          -0.15376982205902293,
          -0.16734322253970754,
          0.18784734606805772,
          -0.05114545846628015,
          -0.20638896148513255,
          -0.0752191031609977,
          -0.08308813420047588,
          0.011965637087888753,
          0.09208694407709299,
          0.03739541767179416,
          0.06048454534158315,
          0.13438765453087936,
          0.17030529385837734,
          -0.28068390732994875,
          -0.14081370767899037,
          0.012103169962046276,
          0.014724667134658491,
          -0.044969732868476886,
          0.29991957859149465,
          0.031141052289962168,
          -0.11268510827421406,
          -0.2550477816021079,
          0.15320752250488398,
          -0.025317846090234134,
          0.03349819615116656,
          0.08439794897762194,
          0.054684744773491306,
          0.13106002582606224,
          0.10485597936065322,
          -0.02710875080657,
          -0.021942925320032773,
          0.05976699948459407,
          0.052282794461090985,
          -0.043661003258163536,
          0.11049223780331537,
          -0.12993431476059783,
          0.2448840928315877,
          0.13265374872185742,
          0.09787624328283837,
          0.18267904201351143,
          -0.1722690825206652,
          -0.0715812976915005,
          0.07827013518059997,
          0.05092497089101796,
          0.045411948477339925,
          -0.0423971313664536,
          -0.1377698962595629,
          -0.056948777574237386,
          0.06395553898431226,
          -0.18934581031574557,
          -0.12845683891457962,
          0.07776817813005892,
          -0.05170331454472205,
          -0.05678455102522181,
          -0.08451547470245427,
          -0.1647792588838404,
          0.1310362648812003,
          0.10919011172833305,
          0.05323081431513279,
          0.12788803952395061,
          -0.17904246558831394,
          -0.3303152546871704,
          -0.07208332113681698,
          -0.1184730372520123,
          0.02909314429463138,
          -0.03511054606765003,
          0.06543527778085492,
          -0.026260651121477758,
          0.0006987268415167014,
          0.015111650765138618,
          -0.2033394162839801,
          -0.09996173585298779,
          0.062338805532405485,
          -0.18819216223598326,
          -0.13364157437781515,
          -0.014423995287133395,
          0.3373615012395829,
          0.19159046810153643,
          0.055980198774710735,
          0.10873420035296752,
          0.08953229944350465,
          -0.3078246707315417,
          0.16372195201078169,
          -0.025011007638975652,
          0.14470197103172908,
          0.16003209745294245,
          0.1379352108692344,
          0.1384439785315715,
          0.2885988236547345,
          0.022285897804729036,
          -0.0020137029530620104,
          -0.11539442102378691,
          -0.01948407414711669,
          -0.09928158053422,
          0.0037969812913255605,
          -0.06830176988742191,
          0.2081830863854132,
          0.015092928496913112,
          0.3258049873341797,
          0.07003139839879145,
          -0.07348328277236955,
          -0.2106426932893427,
          0.03506000130930288,
          -0.002517556599349564,
          -0.10536896505285424,
          -0.03148195315780874,
          0.15669958150193114,
          0.003952798485924502,
          -0.05125323076134019,
          0.052704774694881364,
          0.1443835509812594,
          0.028737088970685304,
          -0.09870859898311113,
          -0.10469864357776652,
          0.12642947997433018,
          0.10975421367985655,
          0.11955591370983397,
          0.0925411473587964,
          0.05190715333396323,
          0.10384369241077725,
          0.0312722625290449,
          -0.18417761215658798,
          0.007322502183816485,
          0.007704768601055137,
          0.0050889984716427986,
          0.11791383970132091,
          0.31374623195573054,
          0.32764628654200195,
          -0.12612892025996897,
          0.03472739070878159,
          -0.068450928306392,
          0.03165946347808622,
          -0.016709049602892517,
          -0.03322758426899025,
          -0.09405732569907055,
          -0.0873540309747305,
          0.026757611277271068,
          0.07123042021056082,
          -0.1273365136376551,
          -0.007752969479164139,
          0.06132846811802182,
          0.04648716202166004,
          0.0032992261645379477,
          0.04782520373184576,
          0.18168571299709957,
          -0.06974319386179907,
          0.08993205225664794,
          -0.03090256156211522,
          0.01765112711268105,
          0.06527129690004223,
          0.19493515259684993,
          0.118244363423424,
          -0.14801028220077073,
          0.09532124180027352,
          -0.009794005830369594,
          -0.05358628508383071,
          -0.06499540088168916,
          -0.02816806044794308,
          0.025973019358432988,
          0.03207439269045249,
          0.13750897960244904,
          -0.05524455027335159,
          0.09943897608725472,
          0.008488288814396823,
          0.23031368759069665,
          0.057120930232465165,
          -0.033292121417416325,
          -0.10017376394051225,
          0.004186930966970065,
          0.0762754427261155,
          -0.19316407173815295,
          0.14065542129240988,
          0.06805692590592777,
          0.15659260179235893,
          0.043937802728870955,
          0.026075772673244176,
          0.10494893473021462,
          -0.022999906841980604,
          0.04055903018562858,
          0.021633734783107882,
          0.044619407398791076,
          -0.05035139458430626,
          0.03491384652103001,
          0.16966499718057643,
          0.147711251147596,
          0.17133167021467294,
          0.0943653919690456,
          -0.15492923990849686,
          0.0376346002017921,
          0.1798126430681487,
          -0.06653321611269816,
          -0.055991269061809755,
          0.018350617318003422,
          0.05891076109445962,
          -0.011392570741291571,
          -0.08703717618860973,
          0.06621996449266286,
          0.12210624367442403,
          -0.021173400249180848,
          -0.05018881444049401,
          0.018502132416533586,
          -0.05634339504866986,
          0.15497700966325906,
          -0.025531278074549132,
          -0.032967079386141046,
          0.19063646165997908,
          0.06016095616008893,
          0.042487222516112075,
          0.11427685987790452,
          0.03620029996447361,
          0.09920237309130146,
          0.07834187994244865,
          0.02183070376192061,
          -0.17643408814194067,
          0.035437008741615615,
          0.01801399874533779,
          0.06116236214940401,
          -0.1466767396062079,
          -0.000984214457159065,
          0.052912172558881455,
          0.2206369615863459,
          -0.030112796690882373,
          0.14629704974707908,
          -0.029804463356742392,
          0.21421285869167744,
          0.10190807135668817,
          0.19245941525672336,
          0.1825180158965887,
          -0.18065077373639504,
          -0.12022815339132167,
          0.045255636222682624,
          0.11563384149861881,
          -0.3077146201639569,
          -0.10190219692785918,
          -0.10091777762474193,
          -0.07731786402800009,
          0.10635288029030746,
          -0.044293595087911836,
          0.14242938265725916,
          0.1750545720127194,
          -0.040658979258298124,
          -0.10856141657192721,
          0.04845651639836164,
          -0.0762313672814298,
          0.03737162464645644,
          0.016372661109237338,
          -0.09141459584487063,
          0.08093946775791594,
          -0.03530449611051737,
          0.09950277248303713,
          0.10044368360522017,
          0.00823321207761704,
          -0.11955954739719951,
          0.10752623870855477,
          0.054296807567393364,
          0.1001629911971032,
          0.08097580887792852,
          0.08246647396813005,
          0.07494102649321875,
          -0.0484829300599632,
          0.18794179612478437,
          -0.11064012905259572,
          0.03952793326830684,
          0.02180722075394968,
          0.0637642560328002,
          -0.033292310282204994,
          0.1998832680935371,
          -0.017067857860040975,
          0.15549968431786787,
          0.12433144578267831,
          -0.0033320927330626857,
          0.09995676082133512,
          -0.10075634377098638,
          0.2112117334736649,
          0.0800772541116987,
          0.06241032383223862,
          -0.05289266813493337,
          -0.05066768200462167,
          0.13124336974209613,
          0.06299984144964177,
          0.10188531419983039,
          0.17519852526011281,
          -0.11806230074760772,
          -0.015430412279842924,
          0.08596491705942824,
          0.28247641213489605,
          0.13447228625160557,
          0.019208600854569827,
          0.07911666752161756,
          -0.0450492092146692,
          -0.06628169711197358,
          -0.08502542914663519,
          -0.07179108055711607,
          0.005011434705746631,
          0.06950616376401829,
          0.11535133768956701,
          0.0794955663392749,
          -0.17654141193858416,
          0.10546414017556514,
          -0.09355616502180818,
          0.16810055619731287,
          0.1321235829340736,
          0.020812433488858913,
          0.08314615153190076,
          0.035438654984257724,
          -0.04428692015147654,
          -0.09314059050826037,
          0.14079575103574096,
          0.027177010302992778,
          -0.12357613068972731,
          0.04859788487912166,
          0.061074113717937493,
          -0.06586175245770574,
          0.026773107417818385,
          0.02640654079632696,
          -0.03450740897440962,
          0.053676273950745555,
          -0.09497130214014228,
          0.01381068938386306,
          -0.01560462206814168,
          0.16539088492147605,
          0.049545652398784244,
          0.05129727905909588,
          -0.06916624864054892,
          -0.15611308606132018,
          0.1409955753044092,
          0.08602811730184103,
          0.21758488168510984,
          0.18955076405952692,
          -0.09320071474752888,
          0.06515463067989007,
          0.2752132690557373,
          0.09605042476196365,
          -0.10147002582622677,
          -0.08092691386057178,
          0.08751552452272296,
          0.07707542623722186,
          -0.17224222778423873,
          -0.03904355284612564,
          -0.0067167087468679165,
          0.10315238200945291,
          -0.12471588918364863,
          0.14559138505182584,
          0.253307511395805,
          -0.1202351645129838,
          0.13631167718401527,
          0.03035099462985843,
          0.21387902278918017,
          -0.004917700426550423,
          0.15968026243325079,
          -0.007065107123059948,
          0.11286297641849982,
          0.054513711026359664,
          -0.09020664595056913,
          0.01684163012677251,
          -0.18200629021800283,
          -0.05382202016494297,
          -0.06817952865059011,
          -0.11320673130005265,
          -0.040352722238995935,
          -0.02474008010120798,
          0.025527649128871694,
          0.01586779176856815,
          0.015135271623157927,
          -0.09471013936004066,
          0.08024391997204915,
          0.13938143756417498,
          0.08587583131232303,
          -0.059001195997896494,
          -0.08558959547205039,
          0.012609421811969848,
          0.055335883367891255,
          -0.10436034605454977,
          0.1348924357384573,
          -0.15813756180513133,
          -0.049826164736492116,
          0.12871696802382618,
          -0.05417409394418855,
          0.07296153235993433,
          -0.017198741236690508,
          0.17715213617331618,
          -0.060598647085949815,
          0.11079070083070158,
          0.3139235899228371,
          0.06805772792333427,
          0.2941458889021045,
          0.1060725484890135,
          0.19152788652983974,
          -0.052561723894966696,
          0.1044920396626617,
          0.009145290093286934,
          -0.22703413701478034,
          0.06661786633663785,
          0.012918939864052242,
          -0.01168431380606804,
          0.021631384379494224,
          0.01228306904435465,
          -0.13552012441796218,
          0.0508547421844647,
          0.02797274250203265,
          0.062259735111432866,
          -0.025442986335791246,
          0.02130642960165315,
          -0.01850014084887861,
          0.026841553696410992,
          0.09211787553754931,
          -0.037789885163947115,
          0.027012825308195383,
          0.12750767011265937,
          0.08936678181851884,
          0.05576930425514714,
          0.10413949681666432,
          0.061550141595132286,
          0.07250633442650357,
          0.09436727173450819,
          -0.21256346305600718,
          0.02454192873785945,
          -0.0741426931704651,
          0.07296523617329628,
          0.08268245356360772,
          0.018429671364734994,
          0.18821812794398898,
          0.19503417169563922,
          -0.027275043386052265,
          0.04256602394901549,
          0.10373367303580898,
          0.12162791395608312,
          -0.020333571895105405,
          -0.048212476898973115,
          0.09056524367529502,
          0.10512030244394867,
          0.17569830924405838,
          0.008364225905434316,
          0.06570263984343779,
          0.16436760911188053,
          -0.19337624576186002,
          0.03803213831780818,
          -0.15996146446229376,
          0.0485028747069734,
          0.08738282961159617,
          -0.019081454444265174,
          -0.22806790690199227,
          0.034565553878514683,
          0.204147328151602,
          0.039124645194872396,
          0.018003809720267123,
          0.06832297980951083,
          0.10633659471820578,
          0.07623591897186371,
          0.16504509304688403,
          -0.07985974916859084,
          -0.05111596415236728,
          -0.03475069497892149,
          -0.07451172178085506,
          0.06711412159058408,
          0.05876971921994769,
          -0.21059521217558919,
          -0.27888999050803853,
          0.1356172910743447,
          0.12460824675755738,
          -0.20244412552613533,
          0.018355870949973412,
          0.04401330264398405,
          0.041147758921248945,
          0.06660657217894794,
          0.12132098712296147,
          0.057793871684315136,
          0.055951101576005184,
          0.07964632595769983,
          0.1716143568613843,
          0.09848379469808846,
          0.050499594898025656,
          0.06338591697784277,
          -0.0603480925546626,
          0.06478456327640347,
          -0.0558258963084637,
          0.14515083167750986,
          0.08052322061274118,
          -0.039310672798969375,
          -0.09517529544613872,
          -0.02826935924106276,
          0.06154719886119019,
          -0.08111936109330854,
          -0.1678935659812744,
          -0.07941335189150134,
          0.12562253718142008,
          0.12148884141177146,
          0.04989336168840921,
          0.11089786329478823,
          0.07845907715844966,
          0.005876235467687366,
          0.06968979431869837,
          -0.03290790920384428,
          -0.10814711974398503,
          0.3333842289434161,
          -0.19868516424958266,
          -0.09134861318378391,
          -0.06768567899677694,
          0.08600815979297241,
          -0.020976223513651353,
          -0.1825546944137502,
          -0.18696285724740763,
          0.13546872762793746,
          -0.06174216274220188,
          0.03385622218817316,
          0.11230271496980836,
          -0.038879214586122916,
          -0.03965633272456085,
          -0.03833660184054653,
          0.10000306341439731,
          -0.061245215132773284,
          0.16201904011579432,
          0.03249798884881617,
          -0.12895676176491308,
          0.05325431806455891,
          0.06473053922838594,
          -0.11896418415505301,
          -0.11399304734624797,
          0.08785575641354301,
          -0.06237205337795509,
          -0.10603364304312429,
          -0.14117930842423984,
          -0.1623289726303696,
          0.1617078692221258,
          0.13319545305761823,
          0.10775102567729161,
          0.11731837014648165,
          -0.004277913152938795,
          -0.0013729152861283941,
          0.12544813734683927,
          0.08858170645778767,
          0.10004767833741393,
          -0.07126850402967207,
          0.05586299077045119,
          -0.002785174922476489,
          0.157866879706584,
          -0.23409958993463753,
          -0.11163650457649557,
          0.03135669572062124,
          -0.010837518233110428,
          -0.17590875518630045,
          -0.08530837724717824,
          0.03332182802700876,
          0.04648608416175197,
          0.07677889742668259,
          0.11589698964631942,
          -0.07239882116311475,
          -0.053128495572014746,
          -0.023827116124778423,
          -0.1317342164086689,
          0.007326834139272654,
          0.11073714109111255,
          0.05851859853784289,
          -0.09722737843839473,
          0.16717568485832268,
          -0.18394623368035667,
          -0.1219366462874309,
          -0.150734223424056,
          0.21414872238497434,
          0.08133121711857089,
          -0.21630965545875985,
          -0.18557458496975282,
          0.10701890357032215,
          -0.019667320771029017,
          -0.006592931845791287,
          0.19197177060392714,
          -0.18894758518038648,
          0.07772877132129719,
          0.06246831636084045,
          0.1127036345417611,
          -0.08987878895107136,
          -0.02217507353936019,
          0.14237406987009427,
          -0.08417161544766093,
          -0.008240986641366164,
          -0.1943762074084567,
          0.07797716985095324,
          -0.1315663231673659,
          0.020166196090875332,
          -0.017070846640403068,
          -0.23634511065965255,
          -0.13307110488540425,
          -0.14310893916308454,
          0.06062935588239928,
          0.17963353224652923,
          0.10947224239985999,
          -0.009843882156335698,
          0.08645330982138864,
          0.11284957401590583,
          -0.1398713995266726,
          0.052935402238082525,
          0.08093151097129019,
          0.06490150223560134,
          -0.15901615966179833,
          -0.09984615570101,
          0.022925239869908097,
          -0.005825679712969811,
          0.10584745814327186,
          0.10560501896165861,
          0.17288648272168372,
          -0.4080550758125296,
          -0.23058896019721448,
          0.035505658930917984,
          0.09107557667143025,
          -0.041047423417824955,
          0.0795315885136438,
          -0.019708159146546875,
          -0.0965183811880805,
          0.1559489449357425,
          0.05442920117625494,
          0.08023654449768451,
          0.0026375125985093526,
          0.22413273128804348,
          -0.16306131527784318,
          0.2610417932853075,
          -0.10795528612988171,
          -0.05680221575256707,
          -0.15583293156983924,
          -0.012175913089095035,
          0.050220666449795746,
          -0.15433781950807735,
          -0.15332711060550058,
          0.09649332268843182,
          0.03665864726016226,
          0.02697510204007382,
          0.03053627753142729,
          0.154458924687499,
          0.18444696893489565,
          0.0688375576209948,
          -0.14989141126712036,
          0.014413711997637121,
          0.12783935887425904,
          0.04680427776724302,
          -0.139628323650319,
          0.06060259228870927,
          -0.1023729010264653,
          0.1660264534458377,
          -0.039677041905525005,
          -0.06037190468739218,
          0.12418568872131115,
          -0.09544923444457448,
          -0.23736104932780597,
          0.194676914117009,
          0.050232464210977934,
          0.1626391770857663,
          0.16474797030250682,
          0.2100225069990293,
          0.05704081738434759,
          0.17555434807264897,
          0.18967038626514868,
          0.09485674082874597,
          -0.000277367656993613,
          0.01250917721842071,
          -0.03993061643768357,
          -0.11711767669961015,
          -0.12698783956271092,
          0.08181739814497582,
          -0.023508783050408627,
          0.13817521069554387,
          -0.036707476598329875,
          -0.19128125271801186,
          -0.14289776619111422,
          0.05544151212501431,
          0.11786862480595231,
          0.08712678171386093,
          -0.1140847599420043,
          0.29069411955442037,
          0.19956706433993876,
          -0.14238622483647362,
          -0.01612672961715919,
          -0.005950032144791522,
          -0.05367180005635963,
          -0.07474652675069661,
          0.03787187133917901,
          -0.020078497540591163,
          0.12829554249448202,
          0.15463938408144756,
          0.09921113409147912,
          -0.007258187389289606,
          0.09373887132414899,
          0.14308256316118437,
          -0.08201907370323394,
          0.16983832279619157,
          -0.07271487161275142,
          -0.22064819058034316,
          0.013671763649475597,
          -0.052960683977534076,
          -0.10407498410017377,
          0.07342141459701997,
          0.06775224566661182,
          0.02504979509918936,
          0.07710069750165198,
          -0.07849664303761072,
          0.10538546519881413,
          -0.14655396497218812,
          -0.25664789159596774,
          0.08498161983233633,
          -0.05890425154844889,
          0.10821504358885818,
          0.013187456219809079,
          -0.049964427645363456,
          -0.03673585245155722,
          0.059786767667558666,
          -0.059539400698310305,
          0.05727271744346669,
          -0.06035944089849651,
          0.09123026233908928,
          0.1312453739409527,
          0.2312731000307014,
          0.28303235555261896,
          -0.02127461824239257,
          -0.032743331979593185,
          0.21960124998677066,
          0.0837233630246123,
          -0.14705170759935482,
          0.0016097737464253632,
          0.11223728667891739,
          -0.20661488136516057,
          -0.03947939295786983,
          0.03624131693140525,
          0.03349083128249588,
          0.0684308707504797,
          0.03803390430127443,
          0.21264155150953978,
          0.09704994710016727,
          -0.02918831227711141,
          0.23654667148563377,
          0.08955975069596399,
          -0.08547133458566042,
          0.09772454977328843,
          -0.0271957417495494,
          0.07186198413259454,
          0.017698107802456058,
          0.11004360008265014,
          -0.13381651543528386,
          -0.18194648022937,
          0.18328979112247212,
          0.052345057398500025,
          -0.0556975130981098,
          0.009667220479386666,
          0.08523267261528732,
          -0.05320970133362577,
          0.06418131751207576,
          -0.04520709357284565,
          0.012766379742137903,
          -0.006162055148769686,
          -0.06337272151909273,
          0.2843077640522968,
          -0.016525339539667543,
          0.05474366022191252,
          0.11205226128835837,
          0.04618509118543034,
          -0.08493346866462517,
          -0.07874386048741314,
          0.01315151871678313,
          -0.07949027026938862,
          -0.10378068305345871,
          -0.05387298012988148,
          0.03886869358691927,
          0.05512916123679074,
          0.06480666411902707,
          0.10767498319420783,
          -0.015274271098430211,
          0.11277906446923196,
          0.11492222605465471,
          0.07894199569015894,
          0.12539127320154597,
          0.2121011840493631,
          0.09055453130856368,
          -0.07750722081662477,
          0.04199848815604995,
          -0.03410789099340915,
          0.04590617938741049,
          0.056057130021731044,
          0.12332319022797113,
          0.06777672778896349,
          0.14342584606030717,
          -0.005034788784918736,
          0.017903503106842245,
          0.2336605804964872,
          -0.1969392419761581,
          -0.13237465946016846,
          0.10157791861486211,
          0.048204449102837436,
          0.08185845948228303,
          0.01314803226266852,
          0.10343820666796598,
          -0.08075380210567323,
          -0.06248664972273652,
          0.08748053492316245,
          0.15199498147098,
          0.05432846889826221,
          0.19956031839641863,
          0.12722098751039881,
          -0.036155631060665626,
          -0.02690276360775887,
          0.04222792789757689,
          0.1611837178446994,
          -0.03762879037777388,
          -0.08823945554820196,
          0.17956409934818576,
          -0.011039130521690931,
          -0.04104886501245382,
          0.05620601165530849,
          -0.09447399189983337,
          0.05167694321536815,
          0.1848475408529188,
          0.27430649119980266,
          0.0718302532313654,
          0.12745229305169467,
          -0.04427787831972406,
          0.13469746261718643,
          -0.05040108941084485,
          -0.0043401900638829335,
          0.077347089529138,
          -0.15667518705207673,
          -0.15535648582696193,
          -0.17402684574204322,
          0.04701625223983047,
          0.03874841638850881,
          -0.023199212490662143,
          -0.025338893547532753,
          0.025222587973241513,
          0.10954680953741529,
          -0.09850928460460953,
          0.2899673592054778,
          0.03966605855015854,
          0.14349835166220662,
          -0.07292842384126007,
          0.12251485587413073,
          -0.10044526498860089,
          0.14412605454916907,
          -0.022038434444475848,
          -0.027976039089481982,
          0.2860112925081988,
          -0.07293480274548633,
          -0.011450980867714245,
          0.03237406336709879,
          0.07220470524655781,
          0.040343837151596985,
          -0.01959662744262763,
          -0.09811423149334368,
          0.09361455958719207,
          0.07747360928018839,
          0.11987223333213844,
          0.13066266266675566,
          0.02536352255499835,
          -0.01311350473668636,
          0.18137474513096008,
          -0.08052546011874016,
          0.12808830195570098,
          0.16872954352902925,
          -0.02943511197326381,
          -0.01400629805042681,
          -0.098709135024635,
          0.06902242856340149,
          0.008893649756721118,
          -0.01910315804972905,
          -0.23495249737363408,
          0.3049238595122579,
          -0.0028212463811189935,
          -0.06437868768663409,
          0.0062608122988116474,
          -0.007372513900596182,
          0.22793111402116512,
          0.29368855669575017,
          -0.04960756242300368,
          0.15042762785273792,
          0.01124924082357071,
          0.0502668978718331,
          0.126780998013481,
          -0.134329227930197,
          -0.07325371934035596,
          -0.0520607209980531,
          -0.04889073810616012,
          -0.05344748862718486,
          0.19673977869280845,
          -0.051456038395990514,
          0.021590543146659452,
          -0.14511455847804833,
          0.09906755017528533,
          -0.014103165460120123,
          0.0641087638229522,
          0.04862680668786085,
          0.10307546875963593,
          0.1312714649961782,
          -0.05441894250247301,
          -0.06482564319062985,
          0.03407213191761111,
          -0.033045632585031,
          -0.028007953988223096,
          0.03162216118898777,
          -0.030015793925395738,
          0.11494848499467374,
          0.13341092356184753,
          0.2140852411675231,
          -0.022328636228240384,
          -0.002741069665166841,
          0.18138475988613348,
          -0.09341868566341183,
          0.1159131741716856,
          0.029140358195582732,
          0.010948742474854636,
          -0.030091054277094745,
          -0.053672130068755354,
          -0.08504437128682237,
          0.01507339615175693,
          0.15787072999199012,
          0.014364093457197833,
          0.05655487913381554,
          -0.011265385972947028,
          0.0893923600478079,
          0.12353462989271556,
          0.032122078932414505,
          0.0786302642618434,
          -0.00295195136003557,
          0.04990863539798595,
          -0.013373298740884875,
          -0.08179055402143934,
          -0.035021280795674896,
          0.03712541213601874,
          0.014897294160309198,
          0.05391422143037304,
          -0.078493796367155,
          -0.16227185523325213,
          0.11319016176531992,
          0.004593472679278581,
          0.024608653233549445,
          0.10160790189599231,
          -0.17837179574782336,
          0.091292465331749,
          0.08141134710543509,
          0.0776994320350172,
          0.07419713017208403,
          0.1755362860664217,
          0.06979236137993629,
          -0.10880357889865691,
          0.08367741790130805,
          -0.10405118960444479,
          0.022727826327404912,
          -0.004725531964369091,
          -0.0309975377748704,
          0.19629038819557917,
          -0.06426035442374826,
          -0.011117821906733553,
          0.08654128873038706,
          0.06327173640737471,
          0.2300654434106159,
          0.09290605847787345,
          0.11610362880577921,
          0.0014757171163236613,
          -0.055885762110040704,
          0.06287643347151256,
          0.023743490897203103,
          0.14510910492132417,
          -0.031194880185083113,
          -0.019680742756027367,
          -0.10707583381899778,
          0.17500496565750648,
          -0.12296150869124745,
          0.08600943328314713,
          -0.1493481629733948,
          -0.09936183824406347,
          -0.04751529602193247,
          0.07063848300831152,
          0.09660444516196502,
          0.14019903892133495,
          0.02719556303543667,
          0.06681233551960243,
          0.1820226943470934,
          0.1349652932166861,
          0.16092121560612224,
          0.03956563271640976,
          -0.02475290526635882,
          0.32977052497376125,
          -0.07164282173895045,
          -0.22850776735321932,
          -0.15257720333047073,
          0.09729578376213678,
          0.15657209939563693,
          0.0503153049349457,
          -0.030061674909358956,
          0.005109256833785144,
          0.02094951712692332,
          0.052403861039575395,
          0.011216063176875868,
          -0.07047436445810737,
          0.030661365125070433,
          0.17661392435180256,
          0.04003423912922394,
          0.15022500386936904,
          -0.1703985308608556,
          -0.11048090861423038,
          -0.0689321618538898,
          0.12588391269453172,
          -0.005419354458404635,
          -0.06709194336660661,
          0.046852023599020146,
          -0.08721636086691385,
          0.14044070895196298,
          0.014629984201820203,
          0.015200583427880296,
          0.15225207934714746,
          0.06632400192356928,
          -0.01915737082065466,
          0.09601526376644715,
          0.01035973349642867,
          -0.06941502137453251,
          -0.04090149772112858,
          0.04476628301329447,
          0.04772041882098684,
          -0.01932265628725366,
          0.038026417056041074,
          -0.06970652019603223,
          0.22072510965663183,
          -0.2002840870316232,
          -0.18165493895955623,
          -0.2456197713761039,
          0.0635174755842907,
          0.16872437236464485,
          -0.14820854889231794,
          -0.25926211712259956,
          0.06331342642019103,
          0.016726372977370518,
          -0.048602650453063605,
          -0.13749564602536618,
          -0.017390433078135887,
          0.09691029671616358,
          0.13987171060002734,
          -0.038140459478890915,
          -0.024089032488636287,
          -0.0410779475356469,
          0.17494597993404354,
          -0.07770992900499538,
          0.3202755200756808,
          0.0030524290971918103,
          -0.37880077642290033,
          0.018940219942129712,
          0.05736560555884363,
          0.25728961706841225,
          -0.22130024430452216,
          -0.0971594138100198,
          0.020423080205784955,
          0.01118850615473896,
          -0.135176726941921,
          0.02234792874792247,
          -0.023563038468427156,
          0.06430725985710771,
          0.1187047624270907,
          -0.11432725187617822,
          0.1808515206193654,
          0.053851222558095116,
          -0.09610740574779715,
          0.07316876703053961,
          0.01581689013947509,
          -0.05713602347394139,
          -0.3081490429921288,
          -0.1976782111195315,
          0.11142377872152043,
          0.21664348748254975,
          -0.11715257947470264,
          0.09329025336962622,
          0.015979092941905713,
          0.198322505505029,
          0.14551718220740917,
          -0.003990183008904164,
          0.17395476740731625,
          0.03962791432708421,
          0.01408490689470484,
          0.05657443185246286,
          0.07829173250790643,
          0.12726467116946952,
          0.08560525781443515,
          -0.13699150393382875,
          0.15284492031941402,
          0.010691385882453115,
          -0.3346430948024742,
          -0.2467165864273642,
          0.09372127651724282,
          0.17679688501999105,
          -0.17462937712222162,
          0.01793347120962167,
          -0.09847763771823916,
          0.16268652637938552,
          -0.04406788640120648,
          -0.11770051067414705,
          0.055388962374489335,
          0.10445655938442844,
          0.09871101937734099,
          0.08486182264145037,
          -0.07251715885686434,
          -0.2341516528320308,
          0.07461768822817796,
          -0.24805024078002225,
          0.057264156415836556,
          -0.13271932904504546,
          -0.2577002450279093,
          -0.26173330254690375,
          -0.14741614067580913,
          0.18535667369148323,
          -0.22996601222213173,
          0.02281620004255633,
          -0.05895488017789854,
          0.11357583961822776,
          -0.010866331167925469,
          -0.009568221343348095,
          -0.17666028874375583,
          -0.019707843035895962,
          -0.02571731825627633,
          0.050038303373448036,
          0.0876902004019099,
          0.14185535585636747,
          0.17131723458850145,
          -0.2050077135386893,
          0.0804129935446375,
          -0.020234926446241946,
          -0.5247727350028852,
          -0.1489120192617323,
          0.09378884863127229,
          0.026112402130620927,
          -0.23029237375962436,
          0.07152321362828006,
          0.1516424037138064,
          0.10321754169397153,
          -0.03004514259917129,
          -0.06318222362940762,
          0.11886696531407202,
          0.10364602347502397,
          -0.19455877782330752,
          0.1372749465196337,
          0.24066223547845358,
          -0.06242595953102993,
          0.3005652716272751,
          -0.3833848735146307,
          0.019998145661737715,
          -0.009674388592818594,
          -0.3204838545527019,
          -0.18717401152853214,
          0.11911712781080054,
          0.08069600278518685,
          -0.29300866798740843,
          -0.012419739799381107,
          -0.12112916688826714,
          0.0647064835437135,
          0.05251458385578692,
          -0.06330050720780812,
          -0.020977053618905055,
          0.22158798432835525,
          -0.0771656636792445,
          0.10029744134223893,
          -0.04348644725421103,
          0.14279066998344117,
          0.18094717787013098,
          -0.31754620959594515,
          -0.04478208251457544,
          -0.07992794382663698,
          -0.2558270574179399,
          -0.06165788174474468,
          0.0360692283446676,
          0.049714129319171255,
          -0.0913546181032985,
          -0.11268019100278255,
          -0.07189338761914668,
          -0.05359498942033323,
          0.05876733165374058,
          0.07058539733677233,
          0.13762503872034726,
          0.03416147617077832,
          0.08733202831119037,
          0.04956382860394472,
          -0.004848161936942676,
          -0.10187368589144055,
          0.261740153163034,
          0.06398767557286389,
          -0.09946805990399567,
          0.003729445768664789,
          -0.004255398448135726,
          -0.14488503391026203,
          -0.04010486911072646,
          0.23178786268740764,
          -0.10427049394354923,
          -0.013015422443182274,
          0.06433751348717891,
          0.06227019398469363,
          -0.03605941759929286,
          -0.007927099719743081,
          0.062117006982576835,
          -0.2023491983776153,
          -0.03847355607574169,
          0.029633092699697685,
          0.09502943146218816,
          0.018601258925038704,
          -0.07305862557796065,
